{"learner":{"attributes":{"scikit_learn":"{\"_estimator_type\": \"regressor\"}"},"feature_names":["AvgIpc","BertzCT","Chi4n","Kappa3"],"feature_types":["float","float","float","float"],"gradient_booster":{"model":{"gbtree_model_param":{"num_parallel_tree":"1","num_trees":"136"},"iteration_indptr":[0,1,2,3,4,5,6,7,8,9,10,11,12,13,14,15,16,17,18,19,20,21,22,23,24,25,26,27,28,29,30,31,32,33,34,35,36,37,38,39,40,41,42,43,44,45,46,47,48,49,50,51,52,53,54,55,56,57,58,59,60,61,62,63,64,65,66,67,68,69,70,71,72,73,74,75,76,77,78,79,80,81,82,83,84,85,86,87,88,89,90,91,92,93,94,95,96,97,98,99,100,101,102,103,104,105,106,107,108,109,110,111,112,113,114,115,116,117,118,119,120,121,122,123,124,125,126,127,128,129,130,131,132,133,134,135,136],"tree_info":[0,0,0,0,0,0,0,0,0,0,0,0,0,0,0,0,0,0,0,0,0,0,0,0,0,0,0,0,0,0,0,0,0,0,0,0,0,0,0,0,0,0,0,0,0,0,0,0,0,0,0,0,0,0,0,0,0,0,0,0,0,0,0,0,0,0,0,0,0,0,0,0,0,0,0,0,0,0,0,0,0,0,0,0,0,0,0,0,0,0,0,0,0,0,0,0,0,0,0,0,0,0,0,0,0,0,0,0,0,0,0,0,0,0,0,0,0,0,0,0,0,0,0,0,0,0,0,0,0,0,0,0,0,0,0,0],"trees":[{"base_weights":[2.3161815E-1,-7.5989027E0,9.315549E0,-1.4052776E1,-3.8141634E0,5.079835E0,1.6514063E1,-1.816113E1,-9.999542E0,-3.3922184E0,-1.2418478E1,1.0488362E0,7.8242426E0,4.8431126E1,1.2542082E1,-4.1610748E-1,-1.619452E1,-1.2260207E1,-5.6625285E0,-4.8131366E0,-1.6436968E0,-3.505985E-1,-5.8179345E0,-6.591722E0,2.305676E0,1.8263435E1,5.5418854E0,5.3399557E-1,6.264179E1,5.7661166E0,1.7483095E1,-1.5187458E1,-3.989762E-1,-1.1337314E1,-3.8582268E-1,-6.784679E0,3.9391422E0,-3.9805443E0,-7.3526964E0,4.895217E0,-2.7471375E0,4.6912227E-2,-8.187254E0,-9.094129E0,5.8567405E-1,9.935079E0,1.1168003E0,5.957534E0,1.9952732E1,4.8268676E0,2.4489536E1,1.3785109E-1,-1.3766645E-1,3.5687313E1,7.2652245E1,7.0924487E0,-2.765098E0,1.9648731E1,4.7235355E0,-3.195164E-1,-1.2478705E1,-9.951971E0,-2.8182888E-1,-7.465153E0,9.8871306E-2,2.4216022E-1,-1.3086659E-1,-4.3339515E0,4.047346E0,-3.5979405E-1,-6.568394E0,-1.4708644E-1,6.3062787E0,-3.3155694E0,4.6890087E0,-2.2292155E-1,-0E0,-3.627678E-1,-7.1350064E0,-6.80233E-2,7.99288E-2,4.4151015E0,4.6479023E-1,1.5377448E-1,7.936384E0,-0E0,1.8595661E-1,2.3887974E1,1.4340887E1,1.4141675E0,7.3098974E0,6.1940694E-1,1.5636341E-1,1.0065103E0,1.0041462E-1,4.6430935E1,1.8354517E0,4.257371E0,1.6483246E1,-4.6435575E0,6.129005E-1,1.5985722E1,2.479049E1,2.457072E0,3.4539223E-1,-4.519488E0,-1.5373204E1,-1.2029543E1,-3.5615053E0,-6.600266E0,-3.0187976E-1,-8.148424E0,-3.910828E0,1.6475803E-1,-3.6831196E-2,-1.4553536E0,-8.493169E0,7.29628E0,-7.513978E-2,-9.355736E0,-2.674902E0,7.096444E0,-1.2889764E-2,-2.3301026E-1,-5.623352E0,-3.1265376E0,1.2238782E1,-1.8349981E0,1.8699049E0,9.507133E0,3.5040116E0,1.9724287E1,7.1030694E-1,-9.219658E-2,1.7339134E1,4.1364968E-1,4.639427E-1,1.0969875E1,3.6800163E0,1.2078025E0,2.3820421E-1,-1.0619318E0,7.595515E0,4.7684124E1,2.7735777E0,-1.6333492E0,-1.5546633E-1,3.9712213E-2,-1.5487796E-2,4.969615E0,1.733572E1,2.8122526E1,8.8851E0,4.548611E0,-7.591474E-2,-4.327785E-3,-1.4524311E-1,-3.5985973E-1,-2.1660884E-1,-1.5612127E-1,-2.7728555E-1,4.9065247E-2,-1.5767474E-1,-1.4726934E-1,-4.3784752E-2,-6.693754E-3,-2.2335887E-1,-6.543558E-2,-1.3376391E-1,-1.9534376E-1,5.092502E-2,-1.8835935E-1,-8.136907E-2,3.1367313E-2,2.0767611E-1,6.579222E-2,-2.3245719E-1,-4.2922057E-2,-1.5966341E-1,3.459222E-2,1.7392507E-1,-7.868574E-2,-1.9326642E-1,1.828364E-4,-1.7761178E-1,3.2674775E-1,9.288356E-2,-4.726806E-2,1.5659222E-1,1.5046024E-1,2.291414E-2,4.055222E-2,2.2433074E-1,9.979221E-2,2.419221E-2,4.701047E-1,2.6831236E-1,9.538152E-4,4.0641582E-1,-2.2302236E-2,6.931335E-2,-3.61909E-2,2.7539244E-1,2.1207082E-1,1.7086785E-2,9.649678E-2,-4.2652037E-2,2.646551E-1,9.3275376E-2,1.2963513E0,3.4958342E-1,1.3531993E-1,-9.144464E-2,-8.3699785E-2,2.2739215E-2,-0E0,2.8021982E-1,4.1781923E-1,1.8505214E-1,4.4602954E-1,8.574479E-1,9.965026E-2,2.763712E-1,2.2337649E-2,1.3272747E-1],"categories":[],"categories_nodes":[],"categories_segments":[],"categories_sizes":[],"default_left":[0,0,0,0,0,0,0,0,0,0,0,0,0,0,0,0,0,0,0,0,0,0,0,0,0,0,0,0,0,0,0,0,0,0,0,0,0,0,0,0,0,0,0,0,0,0,0,0,0,0,0,0,0,0,0,0,0,0,0,0,0,0,0,0,0,0,0,0,0,0,0,0,0,0,0,0,0,0,0,0,0,0,0,0,0,0,0,0,0,0,0,0,0,0,0,0,0,0,0,0,0,0,0,0,0,0,0,0,0,0,0,0,0,0,0,0,0,0,0,0,0,0,0,0,0,0,0,0,0,0,0,0,0,0,0,0,0,0,0,0,0,0,0,0,0,0,0,0,0,0,0,0,0,0,0,0,0,0,0,0,0,0,0,0,0,0,0,0,0,0,0,0,0,0,0,0,0,0,0,0,0,0,0,0,0,0,0,0,0,0,0,0,0,0,0,0,0,0,0,0,0,0,0,0,0,0,0,0,0,0,0,0,0,0,0,0,0,0,0,0,0,0,0,0,0],"id":0,"left_children":[1,3,5,7,9,11,13,15,17,19,21,23,25,27,29,-1,31,33,35,37,39,-1,41,43,45,47,49,51,53,55,57,59,-1,61,-1,63,65,67,69,71,73,-1,75,77,79,81,83,85,87,89,91,-1,-1,93,95,97,99,101,103,-1,105,107,-1,109,-1,-1,-1,111,113,-1,115,-1,117,119,121,-1,-1,-1,123,-1,-1,125,-1,127,129,-1,-1,131,133,135,137,-1,-1,-1,-1,139,-1,141,143,145,147,149,151,153,-1,155,157,159,161,163,-1,165,167,-1,-1,169,171,173,-1,175,177,179,-1,-1,181,183,185,187,189,191,193,195,-1,-1,197,-1,199,201,203,-1,-1,205,207,209,211,213,-1,-1,-1,215,217,219,221,223,-1,-1,-1,-1,-1,-1,-1,-1,-1,-1,-1,-1,-1,-1,-1,-1,-1,-1,-1,-1,-1,-1,-1,-1,-1,-1,-1,-1,-1,-1,-1,-1,-1,-1,-1,-1,-1,-1,-1,-1,-1,-1,-1,-1,-1,-1,-1,-1,-1,-1,-1,-1,-1,-1,-1,-1,-1,-1,-1,-1,-1,-1,-1,-1,-1,-1,-1,-1,-1,-1,-1],"loss_changes":[1.8145808E5,3.3400688E4,3.591415E4,8.229156E3,3.0897617E3,8.228717E3,5.47599E4,9.431406E2,2.440664E3,2.0408037E3,1.2349375E3,2.9225798E3,1.0440834E4,3.2603617E4,1.2943887E4,0E0,2.3761328E2,8.5486914E2,9.9796924E2,9.2667285E2,2.6963813E3,0E0,3.898576E2,7.822339E2,2.3503137E3,1.509416E3,4.810948E3,6.1341016E2,7.332328E3,1.9002749E3,6.1113516E3,4.366992E1,0E0,4.229082E2,0E0,6.8470874E2,9.385309E2,9.965005E2,7.9460693E2,9.791946E2,1.3631995E3,0E0,3.611189E2,4.2393677E2,1.770921E2,2.4528677E3,1.4852188E3,2.147333E2,1.1605762E3,2.9762158E3,1.1414941E3,0E0,0E0,5.104285E3,8.699672E3,3.7524297E3,1.5096758E2,3.197875E3,9.137126E2,0E0,6.5699316E2,1.3295098E3,0E0,3.9671338E2,0E0,0E0,0E0,4.9585303E2,3.8879138E2,0E0,1.01561914E3,0E0,5.174933E2,1.1177898E3,3.0337878E2,0E0,0E0,0E0,1.1628198E2,0E0,0E0,1.5772733E3,0E0,6.8604877E2,1.5460095E2,0E0,0E0,1.1577539E3,1.8481919E3,2.72537E3,2.661917E3,0E0,0E0,0E0,0E0,5.5061543E3,0E0,2.0003329E3,1.3956367E4,1.2354227E2,1.9330826E1,1.6120508E3,3.8639414E3,4.1001172E2,0E0,1.1240985E2,6.3287598E1,4.844912E2,7.2419824E2,2.1774268E2,0E0,7.4505005E2,5.0520117E2,0E0,0E0,1.0265892E3,2.6539014E2,7.730891E2,0E0,8.454546E2,7.3528955E2,1.1670349E2,0E0,0E0,1.1158569E2,2.574718E2,3.1745105E2,4.9048773E2,4.288484E2,2.2581592E2,2.129396E1,4.0416016E2,0E0,0E0,1.3800747E3,0E0,6.876776E2,3.6450703E3,2.0193727E3,0E0,0E0,2.8615845E2,1.0689814E3,3.99775E3,7.359816E2,7.002361E1,0E0,0E0,0E0,6.357804E2,2.7216426E3,4.503707E3,2.0979517E2,1.5318777E2,0E0,0E0,0E0,0E0,0E0,0E0,0E0,0E0,0E0,0E0,0E0,0E0,0E0,0E0,0E0,0E0,0E0,0E0,0E0,0E0,0E0,0E0,0E0,0E0,0E0,0E0,0E0,0E0,0E0,0E0,0E0,0E0,0E0,0E0,0E0,0E0,0E0,0E0,0E0,0E0,0E0,0E0,0E0,0E0,0E0,0E0,0E0,0E0,0E0,0E0,0E0,0E0,0E0,0E0,0E0,0E0,0E0,0E0,0E0,0E0,0E0,0E0,0E0,0E0,0E0,0E0,0E0,0E0,0E0,0E0,0E0],"parents":[2147483647,0,0,1,1,2,2,3,3,4,4,5,5,6,6,7,7,8,8,9,9,10,10,11,11,12,12,13,13,14,14,16,16,17,17,18,18,19,19,20,20,22,22,23,23,24,24,25,25,26,26,27,27,28,28,29,29,30,30,31,31,33,33,35,35,36,36,37,37,38,38,39,39,40,40,42,42,43,43,44,44,45,45,46,46,47,47,48,48,49,49,50,50,53,53,54,54,55,55,56,56,57,57,58,58,60,60,61,61,63,63,67,67,68,68,70,70,72,72,73,73,74,74,78,78,81,81,83,83,84,84,87,87,88,88,89,89,90,90,95,95,97,97,98,98,99,99,100,100,101,101,102,102,103,103,105,105,106,106,107,107,108,108,109,109,111,111,112,112,115,115,116,116,117,117,119,119,120,120,121,121,124,124,125,125,126,126,127,127,128,128,129,129,130,130,131,131,134,134,136,136,137,137,138,138,141,141,142,142,143,143,144,144,145,145,149,149,150,150,151,151,152,152,153,153],"right_children":[2,4,6,8,10,12,14,16,18,20,22,24,26,28,30,-1,32,34,36,38,40,-1,42,44,46,48,50,52,54,56,58,60,-1,62,-1,64,66,68,70,72,74,-1,76,78,80,82,84,86,88,90,92,-1,-1,94,96,98,100,102,104,-1,106,108,-1,110,-1,-1,-1,112,114,-1,116,-1,118,120,122,-1,-1,-1,124,-1,-1,126,-1,128,130,-1,-1,132,134,136,138,-1,-1,-1,-1,140,-1,142,144,146,148,150,152,154,-1,156,158,160,162,164,-1,166,168,-1,-1,170,172,174,-1,176,178,180,-1,-1,182,184,186,188,190,192,194,196,-1,-1,198,-1,200,202,204,-1,-1,206,208,210,212,214,-1,-1,-1,216,218,220,222,224,-1,-1,-1,-1,-1,-1,-1,-1,-1,-1,-1,-1,-1,-1,-1,-1,-1,-1,-1,-1,-1,-1,-1,-1,-1,-1,-1,-1,-1,-1,-1,-1,-1,-1,-1,-1,-1,-1,-1,-1,-1,-1,-1,-1,-1,-1,-1,-1,-1,-1,-1,-1,-1,-1,-1,-1,-1,-1,-1,-1,-1,-1,-1,-1,-1,-1,-1,-1,-1,-1,-1],"split_conditions":[2.4137974E0,1.9225456E0,4.139684E0,9.108927E1,2.524889E0,2.3757727E0,5.446146E2,7.5E-2,2.0159491E2,2.2099059E0,2.2924876E0,1.387254E0,4.5109433E2,2.7348711E0,1.1220895E3,-4.1610748E-1,8.5378146E-1,1.1402544E0,1.9003726E0,1.2889607E0,2.3020323E2,-3.505985E-1,2.0159491E2,4.6931952E2,3.9609207E2,1.6296756E2,1.346283E3,5.5489902E0,4.776724E0,8.10649E0,8.6662445E0,5.5245143E-1,-3.989762E-1,1.8560659E0,-3.8582268E-1,3.1027472E2,5.187189E-1,1.2565302E0,6.043856E1,9.544468E1,6.661822E2,4.6912227E-2,3.3276062E0,2.1696645E2,2.5951579E0,2.1650517E0,8.351288E2,2.8058734E0,2.8990588E2,2.7178116E0,3.6486294E0,1.3785109E-1,-1.3766645E-1,2.8398702E0,2.9176111E0,3.0259817E0,1.0428375E3,1.7564403E3,3.6921105E0,-3.195164E-1,3.5302967E1,1.7874724E0,-2.8182888E-1,1.1594039E0,9.8871306E-2,2.4216022E-1,-1.3086659E-1,5.986088E-1,2.0625053E2,-3.5979405E-1,1.7989667E2,-1.4708644E-1,2.3317077E0,2.8425507E2,2.1213202E0,-2.2292155E-1,-0E0,-3.627678E-1,9.6191496E-1,-6.80233E-2,7.99288E-2,3.3882898E2,4.6479023E-1,5.910498E2,9.677218E2,-0E0,1.8595661E-1,3.365061E0,3.006338E2,2.4236274E0,9.023867E2,6.1940694E-1,1.5636341E-1,1.0065103E0,1.0041462E-1,5.2970233E0,1.8354517E0,7.4556177E2,7.896104E2,3.213598E0,3.3462825E0,2.989782E0,2.2889226E3,1.1337539E1,3.4539223E-1,6.523689E-1,6.2249207E1,1.6423714E0,1.8266333E0,2.70274E2,-3.0187976E-1,1.64653E2,1.0932856E0,1.6475803E-1,-3.6831196E-2,2.0703666E0,4.6931952E2,1.5200887E0,-7.513978E-2,2.2677553E0,2.0814033E0,1.538331E0,-1.2889764E-2,-2.3301026E-1,4.4056238E2,1.9175828E0,3.8217435E2,3.0674024E0,1.5655361E0,2.0282698E0,2.7058036E0,2.4086964E2,7.1030694E-1,-9.219658E-2,2.5073922E0,4.1364968E-1,2.635875E0,2.74272E0,2.9470048E0,1.2078025E0,2.3820421E-1,5.8437646E2,8.7952234E2,3.154927E0,3.213598E0,3.0581052E0,-1.5546633E-1,3.9712213E-2,-1.5487796E-2,1.3007144E3,1.4381744E3,3.3594816E0,7.8930306E0,1.0184051E1,-7.591474E-2,-4.327785E-3,-1.4524311E-1,-3.5985973E-1,-2.1660884E-1,-1.5612127E-1,-2.7728555E-1,4.9065247E-2,-1.5767474E-1,-1.4726934E-1,-4.3784752E-2,-6.693754E-3,-2.2335887E-1,-6.543558E-2,-1.3376391E-1,-1.9534376E-1,5.092502E-2,-1.8835935E-1,-8.136907E-2,3.1367313E-2,2.0767611E-1,6.579222E-2,-2.3245719E-1,-4.2922057E-2,-1.5966341E-1,3.459222E-2,1.7392507E-1,-7.868574E-2,-1.9326642E-1,1.828364E-4,-1.7761178E-1,3.2674775E-1,9.288356E-2,-4.726806E-2,1.5659222E-1,1.5046024E-1,2.291414E-2,4.055222E-2,2.2433074E-1,9.979221E-2,2.419221E-2,4.701047E-1,2.6831236E-1,9.538152E-4,4.0641582E-1,-2.2302236E-2,6.931335E-2,-3.61909E-2,2.7539244E-1,2.1207082E-1,1.7086785E-2,9.649678E-2,-4.2652037E-2,2.646551E-1,9.3275376E-2,1.2963513E0,3.4958342E-1,1.3531993E-1,-9.144464E-2,-8.3699785E-2,2.2739215E-2,-0E0,2.8021982E-1,4.1781923E-1,1.8505214E-1,4.4602954E-1,8.574479E-1,9.965026E-2,2.763712E-1,2.2337649E-2,1.3272747E-1],"split_indices":[0,0,2,1,2,2,1,2,1,0,0,2,1,0,1,0,2,2,0,2,1,0,1,1,1,1,1,2,2,2,2,2,0,0,0,1,2,2,1,1,1,0,2,1,0,2,1,2,1,0,2,0,0,0,0,0,1,1,0,0,1,0,0,2,0,0,0,2,1,0,1,0,2,1,2,0,0,0,2,0,0,1,0,1,1,0,0,2,1,2,1,0,0,0,0,2,0,1,1,0,0,0,1,2,0,2,1,0,0,1,0,1,2,0,0,0,1,2,0,0,2,2,0,0,1,2,1,0,2,2,0,1,0,0,0,0,0,2,2,0,0,1,1,0,0,0,0,0,0,1,1,0,2,2,0,0,0,0,0,0,0,0,0,0,0,0,0,0,0,0,0,0,0,0,0,0,0,0,0,0,0,0,0,0,0,0,0,0,0,0,0,0,0,0,0,0,0,0,0,0,0,0,0,0,0,0,0,0,0,0,0,0,0,0,0,0,0,0,0,0,0,0,0,0,0],"split_type":[0,0,0,0,0,0,0,0,0,0,0,0,0,0,0,0,0,0,0,0,0,0,0,0,0,0,0,0,0,0,0,0,0,0,0,0,0,0,0,0,0,0,0,0,0,0,0,0,0,0,0,0,0,0,0,0,0,0,0,0,0,0,0,0,0,0,0,0,0,0,0,0,0,0,0,0,0,0,0,0,0,0,0,0,0,0,0,0,0,0,0,0,0,0,0,0,0,0,0,0,0,0,0,0,0,0,0,0,0,0,0,0,0,0,0,0,0,0,0,0,0,0,0,0,0,0,0,0,0,0,0,0,0,0,0,0,0,0,0,0,0,0,0,0,0,0,0,0,0,0,0,0,0,0,0,0,0,0,0,0,0,0,0,0,0,0,0,0,0,0,0,0,0,0,0,0,0,0,0,0,0,0,0,0,0,0,0,0,0,0,0,0,0,0,0,0,0,0,0,0,0,0,0,0,0,0,0,0,0,0,0,0,0,0,0,0,0,0,0,0,0,0,0,0,0],"sum_hessian":[2.549E3,1.369E3,1.18E3,5.05E2,8.64E2,7.44E2,4.36E2,2.49E2,2.56E2,8.25E2,3.9E1,3.02E2,4.42E2,4.7E1,3.89E2,1.02E2,1.47E2,1.67E2,8.9E1,4.54E2,3.71E2,2.1E1,1.8E1,4.2E1,2.6E2,7.8E1,3.64E2,1.1E1,3.6E1,1.65E2,2.24E2,1.2E2,2.7E1,1.5E2,1.7E1,8E1,9E0,3.44E2,1.1E2,5.3E1,3.18E2,4E0,1.4E1,3.1E1,1.1E1,3.4E1,2.26E2,1E1,6.8E1,3.52E2,1.2E1,6E0,5E0,1.1E1,2.5E1,1.43E2,2.2E1,1.91E2,3.3E1,8.9E1,3.1E1,1.03E2,4.7E1,7.6E1,4E0,5E0,4E0,3.3E2,1.4E1,6E0,1.04E2,5E0,4.8E1,2.96E2,2.2E1,1E1,4E0,4E0,2.7E1,5E0,6E0,2.5E1,9E0,1.99E2,2.7E1,4E0,6E0,3.8E1,3E1,1.49E2,2.03E2,8E0,4E0,7E0,4E0,1.2E1,1.3E1,1.11E2,3.2E1,1.4E1,8E0,1.14E2,7.7E1,2.9E1,4E0,9E0,2.2E1,7.7E1,2.6E1,7E1,6E0,3.1E1,2.99E2,8E0,6E0,2.9E1,7.5E1,4.4E1,4E0,2.7E1,2.69E2,1.5E1,7E0,5E0,2.2E1,1.3E1,1.2E1,9.2E1,1.07E2,1.9E1,8E0,3E1,8E0,4E0,2.6E1,6E0,1.43E2,1E2,1.03E2,8E0,4E0,4.3E1,6.8E1,9E0,2.3E1,8E0,6E0,4E0,4E0,1.3E1,1.01E2,6.3E1,1.4E1,2.2E1,7E0,4E0,5E0,1.2E1,1E1,2.5E1,5.2E1,1.1E1,1.5E1,5.9E1,1.1E1,9E0,2.2E1,2.45E2,5.4E1,9E0,2E1,6.1E1,1.4E1,1.6E1,2.8E1,4E0,2.3E1,2.46E2,2.3E1,4E0,1.1E1,1.7E1,5E0,9E0,4E0,7E0,5E0,8.8E1,4E0,1.1E1,9.6E1,4E0,1.5E1,4E0,4E0,1.7E1,1.3E1,4E0,2.2E1,9.4E1,4.9E1,1.8E1,8.2E1,2.9E1,7.4E1,6E0,3.7E1,2.2E1,4.6E1,5E0,4E0,1.5E1,8E0,4E0,4E0,9E0,4E0,6.9E1,3.2E1,4.7E1,1.6E1,9E0,5E0,9E0,1.3E1],"tree_param":{"num_deleted":"0","num_feature":"4","num_nodes":"225","size_leaf_vector":"1"}},{"base_weights":[-9.382526E-2,-3.942536E0,2.3236479E1,-1.1572072E1,5.640593E-1,-4.3196723E-1,2.5861721E1,-1.7412008E1,-8.949931E0,-3.607043E0,4.4941573E0,1.9367373E1,6.834814E1,-3.8199982E-1,-1.4822145E1,-1.4948404E1,-5.9880757E0,-5.706652E0,-1.9337414E-1,3.9640987E0,3.3260124E1,1.5466275E1,2.456572E1,8.9965767E-1,7.617314E1,-3.1852633E-1,-1.0981555E1,-1.9063015E1,-1.2850775E1,-8.154505E0,-3.4881916E0,-9.503398E0,-4.7944922E0,-5.540271E0,2.2270617E0,2.8172274E0,9.738039E0,1.0093013E0,2.2453181E-1,1.5854021E1,-1.8700298E-2,2.5754313E1,9.424962E0,1.7058264E0,7.389987E-1,-1.5646295E-1,-2.963063E-1,-3.4694102E-1,-4.830989E-1,-9.497655E0,-1.3945179E1,-1.5405714E1,-7.1614428E0,-4.0514894E0,6.5516806E0,-1.1906226E1,-5.8157744E0,5.687597E-1,-4.974986E0,-7.4553504E0,-2.2981048E0,-7.8418416E-1,3.6219425E0,1.1528287E0,4.7014627E0,1.2082394E1,1.3691994E0,1.0193535E1,1.7315084E1,1.006345E1,2.7096563E1,3.883738E-1,-4.099185E-2,-2.0764324E-1,-1.0294351E-1,-1.54695215E1,-2.2474726E-1,-1.16005026E-1,-1.7009794E1,1.0759994E-1,-7.617446E0,-7.6153336E0,-2.4525206E0,2.4216859E-1,-2.6375094E-2,-9.872167E0,-2.7328917E-1,5.240981E-2,-7.0459595E0,-7.7307254E-2,8.7306544E-2,-6.227401E0,-3.872837E0,-5.030718E0,-2.0796484E-1,-1.0911456E0,-9.5806E-2,-9.871226E-2,-1.0701518E-1,4.394386E0,-5.569347E0,-1.8660796E0,1.9199511E0,4.3760803E-1,4.178851E0,1.5322768E1,9.39867E0,-8.629994E-2,3.2244458E0,7.2923255E0,3.1653586E-1,1.0524189E1,1.8128336E1,4.3934543E-2,2.8335518E-1,2.3089283E1,3.341839E1,-3.2414734E-1,-1.5402606E-1,-1.8272811E-1,-3.674673E-1,-1.9664937E-1,-1.0143843E-1,-1.697056E-1,-7.7818215E-2,1.17615744E-1,-6.3589804E-2,-2.3122399E-1,-9.118384E-2,-5.0537653E-2,-1.9001704E-1,-6.266236E-2,-1.3271368E-1,-8.945888E-2,7.890879E-3,-1.6237701E-1,-3.5748463E-2,7.31716E-4,-3.462083E-2,6.020656E-2,-3.0090567E-2,7.02352E-2,2.8679118E-1,-1.5477571E-1,-3.4883037E-2,-5.0227463E-2,9.6157394E-2,5.2763365E-2,-5.9505444E-2,1.02230586E-1,7.585982E-3,1.6686285E-1,3.6708644E-1,1.6249296E-1,2.8021002E-1,4.285207E-3,1.1784818E-1,2.4751449E-1,-5.0660517E-2,8.707351E-2,2.4092743E-1,4.420153E-1,3.1560203E-1,3.9406994E-1,7.8818196E-1,8.419764E-1,4.7068486E-1],"categories":[],"categories_nodes":[],"categories_segments":[],"categories_sizes":[],"default_left":[0,0,0,0,0,0,0,0,0,0,0,0,0,0,0,0,0,0,0,0,0,0,0,0,0,0,0,0,0,0,0,0,0,0,0,0,0,0,0,0,0,0,0,0,0,0,0,0,0,0,0,0,0,0,0,0,0,0,0,0,0,0,0,0,0,0,0,0,0,0,0,0,0,0,0,0,0,0,0,0,0,0,0,0,0,0,0,0,0,0,0,0,0,0,0,0,0,0,0,0,0,0,0,0,0,0,0,0,0,0,0,0,0,0,0,0,0,0,0,0,0,0,0,0,0,0,0,0,0,0,0,0,0,0,0,0,0,0,0,0,0,0,0,0,0,0,0,0,0,0,0,0,0,0,0,0,0,0,0,0,0,0,0,0,0,0,0],"id":1,"left_children":[1,3,5,7,9,-1,11,13,15,17,19,21,23,-1,25,27,29,31,33,35,37,39,41,-1,43,-1,45,47,49,51,53,55,57,59,61,63,65,-1,-1,67,-1,69,71,-1,-1,-1,-1,-1,-1,73,75,77,79,81,83,85,87,89,91,93,95,97,99,101,103,105,107,109,111,113,115,-1,-1,-1,-1,117,-1,-1,119,-1,121,123,125,-1,-1,127,-1,-1,129,-1,-1,131,133,135,-1,137,-1,-1,139,141,143,145,147,-1,149,151,153,-1,155,157,-1,159,161,-1,-1,163,165,-1,-1,-1,-1,-1,-1,-1,-1,-1,-1,-1,-1,-1,-1,-1,-1,-1,-1,-1,-1,-1,-1,-1,-1,-1,-1,-1,-1,-1,-1,-1,-1,-1,-1,-1,-1,-1,-1,-1,-1,-1,-1,-1,-1,-1,-1,-1,-1,-1,-1],"loss_changes":[2.3461681E5,7.713407E4,4.4110766E4,1.2585773E4,2.3146986E4,0E0,9.520147E4,8.2209375E2,1.0150512E4,4.9053584E3,1.0933088E4,5.7836094E3,4.918422E3,0E0,2.600879E2,1.377668E3,2.0666084E3,1.4151299E3,3.404885E3,4.700492E3,4.328248E3,1.1485195E3,2.0597812E3,0E0,8.584719E3,0E0,1.9880469E2,1.00302734E2,3.282793E2,1.3680732E3,1.0544836E3,6.389048E2,3.382124E2,4.8673853E2,7.646322E2,1.8668179E3,2.2912969E3,0E0,0E0,1.2394062E3,0E0,2.2135078E3,1.3105889E3,0E0,0E0,0E0,0E0,0E0,0E0,7.28562E1,2.0386719E2,2.5881152E2,1.0944746E3,9.617229E2,4.5913486E2,2.4057617E1,3.737113E2,2.191569E2,4.3008398E2,3.0326465E2,8.785239E1,1.597995E2,9.042081E2,7.423751E2,2.4083086E3,6.4269434E2,2.980554E2,4.9314575E2,5.448281E2,3.1520264E2,1.9592109E3,0E0,0E0,0E0,0E0,1.9471387E2,0E0,0E0,3.199707E1,0E0,9.457168E2,1.3202393E2,7.502642E2,0E0,0E0,1.7190381E2,0E0,0E0,3.0231287E2,0E0,0E0,1.6848975E2,4.649265E2,2.8061053E2,0E0,1.7575844E1,0E0,0E0,2.2589896E2,9.4945776E2,6.436682E1,2.9076697E2,9.042046E2,0E0,9.625425E2,6.788154E2,1.8562207E2,0E0,1.6409222E2,1.3852101E3,0E0,9.837305E1,7.501797E2,0E0,0E0,3.0594648E3,2.4057383E3,0E0,0E0,0E0,0E0,0E0,0E0,0E0,0E0,0E0,0E0,0E0,0E0,0E0,0E0,0E0,0E0,0E0,0E0,0E0,0E0,0E0,0E0,0E0,0E0,0E0,0E0,0E0,0E0,0E0,0E0,0E0,0E0,0E0,0E0,0E0,0E0,0E0,0E0,0E0,0E0,0E0,0E0,0E0,0E0,0E0,0E0,0E0,0E0,0E0,0E0],"parents":[2147483647,0,0,1,1,2,2,3,3,4,4,6,6,7,7,8,8,9,9,10,10,11,11,12,12,14,14,15,15,16,16,17,17,18,18,19,19,20,20,21,21,22,22,24,24,26,26,27,27,28,28,29,29,30,30,31,31,32,32,33,33,34,34,35,35,36,36,39,39,41,41,42,42,49,49,50,50,51,51,52,52,53,53,54,54,55,55,56,56,57,57,58,58,59,59,60,60,61,61,62,62,63,63,64,64,65,65,66,66,67,67,68,68,69,69,70,70,75,75,78,78,80,80,81,81,82,82,85,85,88,88,91,91,92,92,93,93,95,95,98,98,99,99,100,100,101,101,102,102,104,104,105,105,106,106,108,108,109,109,111,111,112,112,115,115,116,116],"right_children":[2,4,6,8,10,-1,12,14,16,18,20,22,24,-1,26,28,30,32,34,36,38,40,42,-1,44,-1,46,48,50,52,54,56,58,60,62,64,66,-1,-1,68,-1,70,72,-1,-1,-1,-1,-1,-1,74,76,78,80,82,84,86,88,90,92,94,96,98,100,102,104,106,108,110,112,114,116,-1,-1,-1,-1,118,-1,-1,120,-1,122,124,126,-1,-1,128,-1,-1,130,-1,-1,132,134,136,-1,138,-1,-1,140,142,144,146,148,-1,150,152,154,-1,156,158,-1,160,162,-1,-1,164,166,-1,-1,-1,-1,-1,-1,-1,-1,-1,-1,-1,-1,-1,-1,-1,-1,-1,-1,-1,-1,-1,-1,-1,-1,-1,-1,-1,-1,-1,-1,-1,-1,-1,-1,-1,-1,-1,-1,-1,-1,-1,-1,-1,-1,-1,-1,-1,-1,-1,-1],"split_conditions":[1.0677778E1,2.8425507E2,6.9127045E1,1.7681773E0,2.9012358E0,-4.3196723E-1,2.4401669E1,6.043856E1,1.2392064E0,5.76639E2,2.0309438E3,1.64873E1,3.3882898E2,-3.8199982E-1,3.7046158E0,1.4538834E2,2.2012615E0,1.1876193E0,1.5779825E0,1.079105E3,6.9742837E0,2.2889226E3,2.2889226E3,8.9965767E-1,7.663779E2,-3.1852633E-1,5.557414E0,2.1404316E0,1.8438884E0,1.3589174E2,9.847372E0,4.2485562E2,1.2539046E0,1.4157443E0,6.759194E2,2.635875E0,3.4037497E0,1.0093013E0,2.2453181E-1,1.163564E1,-1.8700298E-2,1.7538622E2,3.387984E0,1.7058264E0,7.389987E-1,-1.5646295E-1,-2.963063E-1,-3.4694102E-1,-4.830989E-1,2.1696645E2,2.505642E2,1.5028515E0,1.2539046E0,1.0348378E2,1.0108615E1,9.729205E-1,4.4056238E2,1.2110063E0,1.9496253E0,7.035565E2,2.7938635E0,2.296688E0,3.4334528E0,2.262251E0,4.1197006E2,5.7332745E0,3.4898958E0,2.9957116E0,1.5389174E2,1.26E2,2.0582476E1,3.883738E-1,-4.099185E-2,-2.0764324E-1,-1.0294351E-1,1.1876193E0,-2.2474726E-1,-1.16005026E-1,1.8438884E0,1.0759994E-1,2.042911E0,7.7734127E0,1.8266333E0,2.4216859E-1,-2.6375094E-2,9.041419E-1,-2.7328917E-1,5.240981E-2,9.729205E-1,-7.7307254E-2,8.7306544E-2,3.006338E2,2.512935E0,2.4076076E0,-2.0796484E-1,2.464359E0,-9.5806E-2,-9.871226E-2,6.010161E2,3.183418E0,9.931157E2,4.2890496E0,2.605738E0,4.3760803E-1,7.7734127E0,3.7931337E0,1.5534834E3,-8.629994E-2,1.3251792E3,2.9028242E0,3.1653586E-1,9.544468E1,8.7952234E2,4.3934543E-2,2.8335518E-1,3.3251438E0,8.486479E2,-3.2414734E-1,-1.5402606E-1,-1.8272811E-1,-3.674673E-1,-1.9664937E-1,-1.0143843E-1,-1.697056E-1,-7.7818215E-2,1.17615744E-1,-6.3589804E-2,-2.3122399E-1,-9.118384E-2,-5.0537653E-2,-1.9001704E-1,-6.266236E-2,-1.3271368E-1,-8.945888E-2,7.890879E-3,-1.6237701E-1,-3.5748463E-2,7.31716E-4,-3.462083E-2,6.020656E-2,-3.0090567E-2,7.02352E-2,2.8679118E-1,-1.5477571E-1,-3.4883037E-2,-5.0227463E-2,9.6157394E-2,5.2763365E-2,-5.9505444E-2,1.02230586E-1,7.585982E-3,1.6686285E-1,3.6708644E-1,1.6249296E-1,2.8021002E-1,4.285207E-3,1.1784818E-1,2.4751449E-1,-5.0660517E-2,8.707351E-2,2.4092743E-1,4.420153E-1,3.1560203E-1,3.9406994E-1,7.8818196E-1,8.419764E-1,4.7068486E-1],"split_indices":[3,1,1,0,3,0,3,1,3,1,1,3,1,0,3,1,3,3,3,1,3,1,1,0,1,0,3,0,0,1,3,1,3,3,1,0,0,0,0,3,0,1,0,0,0,0,0,0,0,1,1,3,3,1,3,3,1,3,3,1,0,0,0,0,1,3,0,0,1,1,3,0,0,0,0,3,0,0,0,0,0,3,0,0,0,3,0,0,3,0,0,1,0,0,0,0,0,0,1,0,1,3,0,0,3,3,1,0,1,0,0,1,1,0,0,0,1,0,0,0,0,0,0,0,0,0,0,0,0,0,0,0,0,0,0,0,0,0,0,0,0,0,0,0,0,0,0,0,0,0,0,0,0,0,0,0,0,0,0,0,0,0,0,0,0,0,0],"split_type":[0,0,0,0,0,0,0,0,0,0,0,0,0,0,0,0,0,0,0,0,0,0,0,0,0,0,0,0,0,0,0,0,0,0,0,0,0,0,0,0,0,0,0,0,0,0,0,0,0,0,0,0,0,0,0,0,0,0,0,0,0,0,0,0,0,0,0,0,0,0,0,0,0,0,0,0,0,0,0,0,0,0,0,0,0,0,0,0,0,0,0,0,0,0,0,0,0,0,0,0,0,0,0,0,0,0,0,0,0,0,0,0,0,0,0,0,0,0,0,0,0,0,0,0,0,0,0,0,0,0,0,0,0,0,0,0,0,0,0,0,0,0,0,0,0,0,0,0,0,0,0,0,0,0,0,0,0,0,0,0,0,0,0,0,0,0,0],"sum_hessian":[2.611E3,2.242E3,3.69E2,8.32E2,1.41E3,2E1,3.49E2,2.56E2,5.76E2,6.84E2,7.26E2,3.04E2,4.5E1,1.51E2,1.05E2,1.89E2,3.87E2,4.23E2,2.61E2,7.14E2,1.2E1,1.76E2,1.28E2,1.3E1,3.2E1,7.9E1,2.6E1,6.1E1,1.28E2,2.06E2,1.81E2,8E1,3.43E2,8.1E1,1.8E2,5.97E2,1.17E2,6E0,6E0,1.72E2,4E0,1.18E2,1E1,2.5E1,7E0,1.6E1,1E1,4.9E1,1.2E1,3.4E1,9.4E1,2.3E1,1.83E2,1.72E2,9E0,4.7E1,3.3E1,1.1E1,3.32E2,5E1,3.1E1,5.7E1,1.23E2,3.18E2,2.79E2,9.1E1,2.6E1,3.7E1,1.35E2,1E1,1.08E2,5E0,5E0,2.7E1,7E0,5.7E1,3.7E1,4E0,1.9E1,6E0,1.77E2,5.2E1,1.2E2,5E0,4E0,2.5E1,2.2E1,4E0,2.9E1,5E0,6E0,1.53E2,1.79E2,2.9E1,2.1E1,2.2E1,9E0,7E0,5E1,1.14E2,9E0,6.4E1,2.54E2,7E0,2.72E2,3.9E1,5.2E1,6E0,2E1,2.6E1,1.1E1,1.6E1,1.19E2,4E0,6E0,6.9E1,3.9E1,5.1E1,6E0,4E0,1.5E1,9.3E1,8.4E1,4.1E1,1.1E1,9E0,1.11E2,1.8E1,7E0,1.1E1,1.8E1,1.9E1,1.34E2,1.57E2,2.2E1,1.4E1,1.5E1,8E0,1.4E1,1.5E1,3.5E1,1.06E2,8E0,5E0,4E0,5.9E1,5E0,2.22E2,3.2E1,2.18E2,5.4E1,1.3E1,2.6E1,4.3E1,9E0,1E1,1E1,1.7E1,9E0,4E0,1.2E1,4.1E1,7.8E1,5.9E1,1E1,1.9E1,2E1],"tree_param":{"num_deleted":"0","num_feature":"4","num_nodes":"167","size_leaf_vector":"1"}},{"base_weights":[6.9548845E-2,-3.4155343E0,2.4531122E1,-1.0772606E1,7.247933E-1,-1.8550442E1,2.7428232E1,-1.6044582E1,-7.7729535E0,-3.610741E0,4.755734E0,-4.408501E-1,-5.7186615E-2,2.0269262E1,6.0939404E1,-1.8300348E1,-1.2059012E1,-1.5141611E1,-4.747889E0,-5.207315E0,5.642873E-1,4.051718E0,2.6962154E1,1.6795834E1,2.4321873E1,3.3737734E-1,6.619503E1,-3.784706E-1,-1.439025E1,-1.249758E1,-4.8317905E-3,-1.8228662E1,-1.1890994E1,-5.458029E0,8.0319805E0,-6.9567766E0,-3.3283422E0,-5.871931E0,3.1386013E0,9.971493E-1,6.427882E0,9.925251E-1,1.9550434E1,2.0627022E1,1.4112878E1,2.54267E1,1.0234992E1,7.3903175E1,3.420081E1,-1.5186456E-1,-3.0848652E-1,-8.829129E0,-1.3957327E1,-1.6172699E1,-4.6299452E-1,-8.793392E0,-1.3287156E1,-7.429973E0,-3.1509538E0,2.4860448E-1,4.0189667E0,-7.3569183E0,-3.4695404E0,-4.0161333E0,-6.6150796E-1,1.2503884E0,-7.0962844E0,3.6819253E0,-1.2437972E-1,-2.3751988E0,1.796492E0,1.8832537E1,5.942863E0,4.9161252E-1,1.452277E1,1.4403124E1,5.9984463E-1,2.2604651E0,1.7482506E1,1.1451418E1,2.6771557E1,3.636455E-1,3.632847E-2,4.7545856E1,1.6640979E0,8.1059414E-1,3.678438E-1,-2.4001499E-1,-5.489404E0,-1.1740775E-1,-2.865572E-1,-3.4258166E-1,-2.1133982E-1,-1.989865E-1,-1.0632091E-1,-2.7660143E-1,-1.3640553E-1,-3.7435612E-1,-6.6958833E0,-5.1019554E0,-6.1487E-1,-2.5953097E-2,1.3813968E-1,-2.3216457E0,-7.7133527E0,-6.7750144E0,1.197341E-1,-1.9795983E0,-4.428001E0,-1.5082446E0,9.8402396E-2,-7.545749E-3,5.4719727E-2,-1.0233961E1,-3.509692E0,1.8508728E0,7.5922804E0,4.6650797E-1,-4.1964483E0,2.4123757E0,-2.8333666E0,7.058598E-2,2.4027414E1,4.4181848E0,9.93987E0,4.8224306E-1,1.6493844E-2,1.6346416E1,-8.3581805E-3,4.0753093E0,-1.807429E-2,2.0004782E1,1.495032E1,2.9142925E-1,9.37014E-2,2.2895647E1,3.1968697E1,1.1113118E0,5.019423E-1,-1.4814006E-1,-5.3776085E-2,1.1679982E-1,-1.4329644E-1,-1.9709584E-1,-8.2562014E-2,1.09900236E-1,-6.0687076E-2,-7.557423E-2,3.6461085E-2,-1.8569684E-1,-1.3499042E-1,2.2909967E-2,-1.8407448E-1,-1.5152231E-4,-9.797038E-2,-6.766209E-2,-1.1776819E-1,5.4649882E-2,-3.980082E-2,-1.2886977E-1,-2.2640125E-1,1.7220462E-2,-9.467236E-2,-4.0814366E-2,5.0478566E-2,6.313687E-2,1.9838983E-1,-2.0126577E-2,5.6607928E-2,-9.747512E-2,2.7630706E-3,2.9848887E-2,1.277427E-1,-1.09423585E-1,1.7958766E-1,2.50785E-1,6.2842023E-1,1.372889E-1,5.1442202E-2,2.3517706E-1,7.920077E-2,2.0505996E-1,3.9253673E-1,1.0547186E-1,3.4167588E-2,4.3177196E-1,1.5319973E-1,1.1741301E-1,4.0396705E-1,5.376599E-1,3.5925353E-1,7.779929E-1,4.8959696E-1],"categories":[],"categories_nodes":[],"categories_segments":[],"categories_sizes":[],"default_left":[0,0,0,0,0,0,0,0,0,0,0,0,0,0,0,0,0,0,0,0,0,0,0,0,0,0,0,0,0,0,0,0,0,0,0,0,0,0,0,0,0,0,0,0,0,0,0,0,0,0,0,0,0,0,0,0,0,0,0,0,0,0,0,0,0,0,0,0,0,0,0,0,0,0,0,0,0,0,0,0,0,0,0,0,0,0,0,0,0,0,0,0,0,0,0,0,0,0,0,0,0,0,0,0,0,0,0,0,0,0,0,0,0,0,0,0,0,0,0,0,0,0,0,0,0,0,0,0,0,0,0,0,0,0,0,0,0,0,0,0,0,0,0,0,0,0,0,0,0,0,0,0,0,0,0,0,0,0,0,0,0,0,0,0,0,0,0,0,0,0,0,0,0,0,0,0,0,0,0,0,0,0,0,0,0,0,0,0,0,0,0,0,0],"id":2,"left_children":[1,3,5,7,9,11,13,15,17,19,21,-1,-1,23,25,27,29,31,33,35,37,39,41,43,45,-1,47,-1,49,51,-1,53,55,57,59,61,63,65,67,69,71,-1,73,75,77,79,81,83,85,-1,-1,87,89,91,-1,93,95,97,99,-1,101,103,105,107,109,111,113,115,-1,117,119,121,123,-1,125,127,-1,129,131,133,135,-1,-1,137,-1,-1,-1,-1,139,-1,-1,-1,-1,-1,-1,-1,-1,-1,141,143,145,-1,-1,147,149,151,-1,153,155,157,-1,-1,-1,159,161,163,165,167,169,171,173,-1,175,177,179,-1,-1,181,-1,183,-1,185,187,-1,-1,189,191,-1,-1,-1,-1,-1,-1,-1,-1,-1,-1,-1,-1,-1,-1,-1,-1,-1,-1,-1,-1,-1,-1,-1,-1,-1,-1,-1,-1,-1,-1,-1,-1,-1,-1,-1,-1,-1,-1,-1,-1,-1,-1,-1,-1,-1,-1,-1,-1,-1,-1,-1,-1,-1,-1,-1,-1],"loss_changes":[2.2149105E5,6.9280836E4,4.0952703E4,1.2814164E4,2.5463254E4,1.074208E3,7.16522E4,2.4241172E3,1.1597678E4,4.684797E3,1.1677428E4,0E0,0E0,3.1165547E3,1.1114281E4,1.6535938E2,5.602012E2,1.2922734E3,3.4276084E3,1.6411836E3,3.2478787E3,5.3098076E3,2.8559688E3,1.1189023E3,1.49475E3,0E0,9.005047E3,0E0,8.130908E1,4.320957E2,0E0,3.7330664E2,2.0424316E2,1.5813711E3,2.9416504E2,3.3421973E2,4.4787085E2,5.0036316E2,7.3331616E2,8.7195764E2,2.3535E3,0E0,1.0241748E2,2.7498887E3,3.3445664E3,1.6462344E3,6.252217E2,5.0445625E3,3.2331445E2,0E0,0E0,2.742256E2,1.2672266E2,1.0962988E2,0E0,4.739453E1,7.358301E1,1.4353379E3,8.1018005E2,0E0,1.962459E2,3.9664453E2,9.4744946E2,1.5217603E2,2.5133908E2,2.40686E1,4.9683154E2,9.331371E2,0E0,3.2485013E2,7.508373E2,1.0927964E3,2.3738027E3,0E0,1.5429226E3,1.0234883E3,0E0,1.2024544E2,1.0358203E2,1.5355762E2,1.1520781E3,0E0,0E0,7.223008E2,0E0,0E0,0E0,0E0,7.129999E1,0E0,0E0,0E0,0E0,0E0,0E0,0E0,0E0,0E0,1.1006963E3,3.822246E2,1.0944866E3,0E0,0E0,1.1060954E2,2.588672E2,4.381001E2,0E0,1.9877975E2,2.2228003E2,9.902279E1,0E0,0E0,0E0,2.0388184E1,1.3455331E2,2.4638324E2,3.9515674E2,9.087386E1,1.14793274E2,8.3086523E2,1.013188E3,0E0,5.165928E2,1.2868823E3,1.1305615E3,0E0,0E0,4.0229004E2,0E0,2.4091736E1,0E0,4.0539355E2,1.6304092E3,0E0,0E0,6.3372266E2,9.8590625E2,0E0,0E0,0E0,0E0,0E0,0E0,0E0,0E0,0E0,0E0,0E0,0E0,0E0,0E0,0E0,0E0,0E0,0E0,0E0,0E0,0E0,0E0,0E0,0E0,0E0,0E0,0E0,0E0,0E0,0E0,0E0,0E0,0E0,0E0,0E0,0E0,0E0,0E0,0E0,0E0,0E0,0E0,0E0,0E0,0E0,0E0,0E0,0E0,0E0,0E0,0E0,0E0,0E0,0E0,0E0,0E0],"parents":[2147483647,0,0,1,1,2,2,3,3,4,4,5,5,6,6,7,7,8,8,9,9,10,10,13,13,14,14,15,15,16,16,17,17,18,18,19,19,20,20,21,21,22,22,23,23,24,24,26,26,28,28,29,29,31,31,32,32,33,33,34,34,35,35,36,36,37,37,38,38,39,39,40,40,42,42,43,43,44,44,45,45,46,46,47,47,48,48,51,51,52,52,53,53,55,55,56,56,57,57,58,58,60,60,61,61,62,62,63,63,64,64,65,65,66,66,67,67,69,69,70,70,71,71,72,72,74,74,75,75,77,77,78,78,79,79,80,80,83,83,88,88,98,98,99,99,100,100,103,103,104,104,105,105,107,107,108,108,109,109,113,113,114,114,115,115,116,116,117,117,118,118,119,119,120,120,122,122,123,123,124,124,127,127,129,129,131,131,132,132,135,135,136,136],"right_children":[2,4,6,8,10,12,14,16,18,20,22,-1,-1,24,26,28,30,32,34,36,38,40,42,44,46,-1,48,-1,50,52,-1,54,56,58,60,62,64,66,68,70,72,-1,74,76,78,80,82,84,86,-1,-1,88,90,92,-1,94,96,98,100,-1,102,104,106,108,110,112,114,116,-1,118,120,122,124,-1,126,128,-1,130,132,134,136,-1,-1,138,-1,-1,-1,-1,140,-1,-1,-1,-1,-1,-1,-1,-1,-1,142,144,146,-1,-1,148,150,152,-1,154,156,158,-1,-1,-1,160,162,164,166,168,170,172,174,-1,176,178,180,-1,-1,182,-1,184,-1,186,188,-1,-1,190,192,-1,-1,-1,-1,-1,-1,-1,-1,-1,-1,-1,-1,-1,-1,-1,-1,-1,-1,-1,-1,-1,-1,-1,-1,-1,-1,-1,-1,-1,-1,-1,-1,-1,-1,-1,-1,-1,-1,-1,-1,-1,-1,-1,-1,-1,-1,-1,-1,-1,-1,-1,-1,-1,-1,-1,-1],"split_conditions":[1.163564E1,2.8990588E2,7.1548874E1,1.7965676E0,2.9273999E0,2.4264662E1,2.4401669E1,7.842946E1,1.2392064E0,6.467732E2,1.7564403E3,-4.408501E-1,-5.7186615E-2,1.64873E1,2.3498712E2,5.234948E0,6.475802E0,1.909175E2,9.847372E0,1.9188917E0,1.5610671E0,2.635875E0,3.103734E0,8.7952234E2,2.2889226E3,3.3737734E-1,7.896104E2,-3.784706E-1,5.557414E0,1.6423714E0,-4.8317905E-3,2.1404316E0,1.9023919E0,2.2012615E0,1.0108615E1,5.691587E2,2.512935E0,6.661822E2,3.4334528E0,2.262251E0,4.2799277E2,9.925251E-1,7.1005917E0,2.7178116E0,1.1220895E3,1.7538622E2,3.387984E0,3.3882898E2,3.3594816E0,-1.5186456E-1,-3.0848652E-1,1E2,7.809659E-1,1.5389174E2,-4.6299452E-1,2.505642E2,2.5951579E0,1.0348378E2,1.7538622E2,2.4860448E-1,1.052835E1,2.9810938E2,2.6181784E0,2.05654E0,2.7790256E0,1.2877051E0,1.3371495E0,2.8959615E0,-1.2437972E-1,3.2447388E0,2.605738E0,3.2958804E2,1.1044248E3,4.9161252E-1,3.2619584E0,2.512935E0,5.9984463E-1,3.0035548E0,3.154927E0,2.5073922E0,1.9814486E1,3.636455E-1,3.632847E-2,2.8398702E0,1.6640979E0,8.1059414E-1,3.678438E-1,-2.4001499E-1,1.775659E0,-1.1740775E-1,-2.865572E-1,-3.4258166E-1,-2.1133982E-1,-1.989865E-1,-1.0632091E-1,-2.7660143E-1,-1.3640553E-1,-3.7435612E-1,1.2539046E0,3.005015E0,2.3291988E2,-2.5953097E-2,1.3813968E-1,2.9513004E2,1.2289455E0,1.1630092E0,1.197341E-1,2.3088405E0,4.647995E2,4.0683948E2,9.8402396E-2,-7.545749E-3,5.4719727E-2,7.035565E2,7.6256525E2,1.6985044E0,8.1807776E2,3.108268E0,4.2890496E0,2.5336525E0,8.1807776E2,7.058598E-2,4.826522E0,2.8398702E0,3.4037497E0,4.8224306E-1,1.6493844E-2,1.4538834E2,-8.3581805E-3,1.0725205E3,-1.807429E-2,1.4381744E3,3.2619584E0,2.9142925E-1,9.37014E-2,1.7628298E1,1.1372257E3,1.1113118E0,5.019423E-1,-1.4814006E-1,-5.3776085E-2,1.1679982E-1,-1.4329644E-1,-1.9709584E-1,-8.2562014E-2,1.09900236E-1,-6.0687076E-2,-7.557423E-2,3.6461085E-2,-1.8569684E-1,-1.3499042E-1,2.2909967E-2,-1.8407448E-1,-1.5152231E-4,-9.797038E-2,-6.766209E-2,-1.1776819E-1,5.4649882E-2,-3.980082E-2,-1.2886977E-1,-2.2640125E-1,1.7220462E-2,-9.467236E-2,-4.0814366E-2,5.0478566E-2,6.313687E-2,1.9838983E-1,-2.0126577E-2,5.6607928E-2,-9.747512E-2,2.7630706E-3,2.9848887E-2,1.277427E-1,-1.09423585E-1,1.7958766E-1,2.50785E-1,6.2842023E-1,1.372889E-1,5.1442202E-2,2.3517706E-1,7.920077E-2,2.0505996E-1,3.9253673E-1,1.0547186E-1,3.4167588E-2,4.3177196E-1,1.5319973E-1,1.1741301E-1,4.0396705E-1,5.376599E-1,3.5925353E-1,7.779929E-1,4.8959696E-1],"split_indices":[3,1,1,0,3,1,3,1,3,1,1,0,0,3,1,3,3,1,3,3,3,0,0,1,1,0,1,0,3,0,0,0,0,3,3,1,0,1,0,0,1,0,3,0,1,1,0,1,0,0,0,1,3,1,0,1,0,1,1,0,3,1,0,3,3,3,3,0,0,3,0,1,1,0,0,0,0,0,0,0,3,0,0,0,0,0,0,0,3,0,0,0,0,0,0,0,0,0,3,3,1,0,0,1,3,3,0,0,1,1,0,0,0,1,1,3,1,3,3,0,1,0,3,0,0,0,0,1,0,1,0,1,0,0,0,3,1,0,0,0,0,0,0,0,0,0,0,0,0,0,0,0,0,0,0,0,0,0,0,0,0,0,0,0,0,0,0,0,0,0,0,0,0,0,0,0,0,0,0,0,0,0,0,0,0,0,0,0,0,0,0,0,0],"split_type":[0,0,0,0,0,0,0,0,0,0,0,0,0,0,0,0,0,0,0,0,0,0,0,0,0,0,0,0,0,0,0,0,0,0,0,0,0,0,0,0,0,0,0,0,0,0,0,0,0,0,0,0,0,0,0,0,0,0,0,0,0,0,0,0,0,0,0,0,0,0,0,0,0,0,0,0,0,0,0,0,0,0,0,0,0,0,0,0,0,0,0,0,0,0,0,0,0,0,0,0,0,0,0,0,0,0,0,0,0,0,0,0,0,0,0,0,0,0,0,0,0,0,0,0,0,0,0,0,0,0,0,0,0,0,0,0,0,0,0,0,0,0,0,0,0,0,0,0,0,0,0,0,0,0,0,0,0,0,0,0,0,0,0,0,0,0,0,0,0,0,0,0,0,0,0,0,0,0,0,0,0,0,0,0,0,0,0,0,0,0,0,0,0],"sum_hessian":[2.596E3,2.273E3,3.23E2,8.18E2,1.455E3,2E1,3.03E2,2.95E2,5.23E2,7.01E2,7.54E2,1.6E1,4E0,2.51E2,5.2E1,1.86E2,1.09E2,1.51E2,3.72E2,5.07E2,1.94E2,7.32E2,2.2E1,1.38E2,1.13E2,6E0,4.6E1,1.57E2,2.9E1,1.05E2,4E0,7.5E1,7.6E1,3.53E2,1.9E1,2.61E2,2.46E2,5.5E1,1.39E2,3.21E2,4.11E2,4E0,1.8E1,5.4E1,8.4E1,1.04E2,9E0,3.6E1,1E1,5E0,2.4E1,3.2E1,7.3E1,5.6E1,1.9E1,2.6E1,5E1,1.89E2,1.64E2,8E0,1.1E1,2.33E2,2.8E1,1.95E2,5.1E1,8E0,4.7E1,1.32E2,7E0,6.1E1,2.6E2,1.4E1,3.97E2,7E0,1.1E1,3.4E1,2E1,1.9E1,6.5E1,1E1,9.4E1,4E0,5E0,1.1E1,2.5E1,6E0,4E0,1.5E1,1.7E1,4E0,6.9E1,4.6E1,1E1,1.8E1,8E0,4.5E1,5E0,1E1,1.79E2,9.2E1,7.2E1,4E0,7E0,1.6E1,2.17E2,2.1E1,7E0,3.4E1,1.61E2,4.5E1,6E0,4E0,4E0,2.4E1,2.3E1,9.1E1,4.1E1,2.4E1,3.7E1,2.3E2,3E1,4E0,1E1,2.89E2,1.08E2,6E0,5E0,3E1,4E0,1.2E1,7E0,2.9E1,3.6E1,6E0,4E0,5.7E1,3.7E1,7E0,4E0,9E0,8E0,6E0,1.73E2,1.4E1,7.8E1,2E1,5.2E1,1.2E1,4E0,7.9E1,1.38E2,5E0,1.6E1,2.1E1,1.3E1,9.6E1,6.5E1,4E0,4.1E1,7E0,1.7E1,5E0,1.8E1,1.3E1,7.8E1,1.5E1,2.6E1,1.5E1,9E0,3.2E1,5E0,1.88E2,4.2E1,2.5E1,5E0,5E0,5E0,1.23E2,1.66E2,8.2E1,2.6E1,1.2E1,1.8E1,7E0,5E0,2.5E1,4E0,1.4E1,2.2E1,2.9E1,2.8E1,1.7E1,2E1],"tree_param":{"num_deleted":"0","num_feature":"4","num_nodes":"193","size_leaf_vector":"1"}},{"base_weights":[-7.338559E-2,-3.599336E0,2.6694466E1,-1.0780849E1,4.2534962E-1,-1.839795E1,2.993667E1,-1.6093958E1,-7.7363005E0,-2.737427E0,5.5385213E0,-4.373518E-1,-5.627164E-2,2.2835508E1,6.813901E1,-1.7887388E1,-1.1948561E1,-1.4695991E1,-4.99281E0,-7.397468E0,-1.2597165E0,3.2602057E0,1.3304944E1,1.9867126E1,3.3494053E1,4.306257E-1,7.2248E1,-3.6880922E-1,-1.4117238E1,-1.2681562E1,7.05435E-2,-1.8005688E1,-1.2256355E1,-5.693509E0,7.264584E0,-9.052642E0,-5.685698E0,-3.1062346E0,2.0242147E0,7.948269E-1,4.1414723E0,1.125549E1,2.7957796E1,1.8398375E1,3.1478022E1,4.5396515E1,2.2880583E1,5.0766254E1,7.862707E1,-3.394168E-1,-1.0737164E1,-1.3669504E1,-7.2242336E0,-3.285865E-1,-4.4171336E-1,-1.20426245E-1,-1.3332746E1,-7.535635E0,-3.5528944E0,4.2941112E-2,8.310646E0,-8.193798E0,-1.2480747E1,-1.1824858E-2,-6.0177164E0,-4.240176E0,-7.193613E-1,1.1007488E0,4.4362445E0,-1.818223E0,3.0720162E0,2.2369068E1,3.3644943E0,2.4085974E1,9.921202E0,9.8070896E-1,8.397642E0,2.0772274E1,1.5657718E1,4.46087E1,1.6630312E1,6.992164E-1,1.1082566E0,2.5996706E1,1.859218E-1,1.1795307E0,5.4737103E-1,8.9433885E-1,1.7471904E0,-2.391349E-1,-1.0621638E-1,-1.3564742E-1,-2.790876E-1,-3.9649525E0,-2.3811086E-1,-1.5165567E1,-1.066065E1,-3.7221915E-1,-6.8898263E0,-7.409187E0,-1.9119983E0,2.0864667E-1,1.14564635E-1,-1.0663624E1,-5.3009467E0,-1.09184146E-1,-1.3861182E1,-7.645973E0,-4.418252E0,-4.8563013E0,-6.9399434E-1,-1.898223E0,2.017531E0,1.426119E0,-5.288201E0,5.7947297E0,-4.104291E0,-5.0966215E0,1.2781556E0,6.1291723E0,-2.6405373E-1,5.687542E-1,1.3727398E-1,4.4001527E0,1.8845377E0,6.483025E-1,2.6081368E-1,1.1362593E1,4.8326473E0,2.8800854E-1,1.2146572E-2,2.6450616E-1,4.8021588E-1,4.982309E0,1.771391E1,1.0793487E0,4.8696953E-1,9.9061355E-2,4.5036596E-1,2.590782E-1,5.961257E-1,3.0657496E-2,-1.4805385E-1,-3.7976497E-1,-2.6358378E-1,-1.242841E-1,-2.3126552E-1,-2.0715354E-1,-1.21761136E-1,-1.226389E-1,-2.370192E-1,-1.8032748E-2,-1.378344E-1,-3.2997245E-1,-1.9491856E-1,-4.0417064E-2,-1.15029305E-1,-3.1647286E-1,-1.2542081E-1,-3.8157545E-2,-1.6745615E-1,-1.4565337E-1,-3.1608142E-2,-9.271182E-2,-2.3998897E-1,-5.407882E-2,5.105617E-2,-2.259701E-2,-1.2486921E-1,6.122522E-2,-1.3255632E-1,1.4978889E-1,2.2513723E-2,-1.9676001E-1,4.2248038E-3,6.6774026E-2,2.1780875E-1,-1.414621E-1,3.4228931E-3,1.1060845E-1,-1.4417468E-1,6.9112875E-2,-1.5109645E-1,-1.9521769E-3,1.6981563E-1,-3.4626983E-2,8.206678E-2,6.0623143E-2,2.141144E-1,2.4001357E-1,1.8740406E-2,2.007739E-1,2.9743087E-1,2.5174922E-1,4.4751413E-2,1.3413472E-1,2.3757573E-2,3.787011E-1,2.0377555E-1],"categories":[],"categories_nodes":[],"categories_segments":[],"categories_sizes":[],"default_left":[0,0,0,0,0,0,0,0,0,0,0,0,0,0,0,0,0,0,0,0,0,0,0,0,0,0,0,0,0,0,0,0,0,0,0,0,0,0,0,0,0,0,0,0,0,0,0,0,0,0,0,0,0,0,0,0,0,0,0,0,0,0,0,0,0,0,0,0,0,0,0,0,0,0,0,0,0,0,0,0,0,0,0,0,0,0,0,0,0,0,0,0,0,0,0,0,0,0,0,0,0,0,0,0,0,0,0,0,0,0,0,0,0,0,0,0,0,0,0,0,0,0,0,0,0,0,0,0,0,0,0,0,0,0,0,0,0,0,0,0,0,0,0,0,0,0,0,0,0,0,0,0,0,0,0,0,0,0,0,0,0,0,0,0,0,0,0,0,0,0,0,0,0,0,0,0,0,0,0,0,0,0,0,0,0,0,0,0,0,0,0,0,0,0,0,0,0,0,0],"id":3,"left_children":[1,3,5,7,9,11,13,15,17,19,21,-1,-1,23,25,27,29,31,33,35,37,39,41,43,45,-1,47,-1,49,51,-1,53,55,57,59,61,63,65,67,69,71,73,75,77,79,81,83,85,87,-1,89,91,93,-1,-1,-1,95,97,99,-1,101,103,105,-1,107,109,111,113,115,117,119,121,123,125,127,-1,129,131,133,135,137,-1,-1,139,-1,-1,-1,-1,-1,-1,-1,-1,-1,141,-1,143,145,-1,147,149,151,-1,-1,153,155,-1,157,159,161,163,165,167,169,171,173,175,177,179,181,183,185,-1,-1,187,189,-1,-1,191,193,-1,-1,-1,-1,195,197,-1,-1,-1,-1,-1,-1,-1,-1,-1,-1,-1,-1,-1,-1,-1,-1,-1,-1,-1,-1,-1,-1,-1,-1,-1,-1,-1,-1,-1,-1,-1,-1,-1,-1,-1,-1,-1,-1,-1,-1,-1,-1,-1,-1,-1,-1,-1,-1,-1,-1,-1,-1,-1,-1,-1,-1,-1,-1,-1,-1,-1,-1,-1,-1],"loss_changes":[2.4651528E5,6.671908E4,4.500147E4,1.3272547E4,2.3950969E4,1.0606606E3,7.543866E4,2.0079375E3,1.0016639E4,6.2868716E3,9.962686E3,0E0,0E0,6.930664E3,6.82025E3,1.5580469E2,1.1159854E3,9.6606445E2,3.3128252E3,5.638906E2,4.2273037E3,9.478384E2,3.5080293E3,2.6511406E3,5.367082E3,0E0,1.4198594E3,0E0,1.0182617E2,3.7520215E2,0E0,8.671875E0,5.0657715E2,1.3907646E3,8.8927734E1,2.1043457E2,1.8062476E2,1.2014038E3,5.5121106E2,7.024606E2,4.4853135E3,1.6943047E3,5.7414365E3,7.74125E2,3.1242852E3,4.1804297E2,9.668721E2,6.444922E2,4.609672E3,0E0,3.96792E1,4.130664E1,1.8834833E2,0E0,0E0,0E0,1.9169043E2,1.2384424E3,1.0501941E3,0E0,2.4658813E1,5.850322E2,1.0775122E2,0E0,2.3055493E2,6.534702E2,4.7159586E2,3.8587173E2,8.2524756E2,5.668902E2,6.4731537E2,1.0090039E3,4.6499268E2,4.727173E2,7.0647656E2,0E0,4.0402222E2,1.8375898E3,1.7433477E3,5.3978516E2,6.2994116E2,0E0,0E0,7.336162E2,0E0,0E0,0E0,0E0,0E0,0E0,0E0,0E0,0E0,2.2241827E2,0E0,5.1296875E1,5.5002197E1,0E0,4.3965918E2,2.0128076E2,5.933357E2,0E0,0E0,8.206201E1,4.9200806E1,0E0,1.2716406E2,1.8700586E2,4.3078662E2,3.405703E2,3.071757E2,3.295179E2,4.1539355E2,3.0570102E2,2.3246884E2,7.0686865E2,1.3186732E2,6.468026E2,5.816707E2,4.9063367E2,2.0447937E2,0E0,0E0,1.531209E3,1.2278473E3,0E0,0E0,2.1354297E2,4.669375E2,0E0,0E0,0E0,0E0,8.5918396E1,4.3459766E2,0E0,0E0,0E0,0E0,0E0,0E0,0E0,0E0,0E0,0E0,0E0,0E0,0E0,0E0,0E0,0E0,0E0,0E0,0E0,0E0,0E0,0E0,0E0,0E0,0E0,0E0,0E0,0E0,0E0,0E0,0E0,0E0,0E0,0E0,0E0,0E0,0E0,0E0,0E0,0E0,0E0,0E0,0E0,0E0,0E0,0E0,0E0,0E0,0E0,0E0,0E0,0E0,0E0,0E0,0E0,0E0,0E0,0E0,0E0,0E0,0E0,0E0,0E0,0E0],"parents":[2147483647,0,0,1,1,2,2,3,3,4,4,5,5,6,6,7,7,8,8,9,9,10,10,13,13,14,14,15,15,16,16,17,17,18,18,19,19,20,20,21,21,22,22,23,23,24,24,26,26,28,28,29,29,31,31,32,32,33,33,34,34,35,35,36,36,37,37,38,38,39,39,40,40,41,41,42,42,43,43,44,44,45,45,46,46,47,47,48,48,50,50,51,51,52,52,56,56,57,57,58,58,60,60,61,61,62,62,64,64,65,65,66,66,67,67,68,68,69,69,70,70,71,71,72,72,73,73,74,74,76,76,77,77,78,78,79,79,80,80,83,83,93,93,95,95,96,96,98,98,99,99,100,100,103,103,104,104,106,106,107,107,108,108,109,109,110,110,111,111,112,112,113,113,114,114,115,115,116,116,117,117,118,118,119,119,120,120,123,123,124,124,127,127,128,128,133,133,134,134],"right_children":[2,4,6,8,10,12,14,16,18,20,22,-1,-1,24,26,28,30,32,34,36,38,40,42,44,46,-1,48,-1,50,52,-1,54,56,58,60,62,64,66,68,70,72,74,76,78,80,82,84,86,88,-1,90,92,94,-1,-1,-1,96,98,100,-1,102,104,106,-1,108,110,112,114,116,118,120,122,124,126,128,-1,130,132,134,136,138,-1,-1,140,-1,-1,-1,-1,-1,-1,-1,-1,-1,142,-1,144,146,-1,148,150,152,-1,-1,154,156,-1,158,160,162,164,166,168,170,172,174,176,178,180,182,184,186,-1,-1,188,190,-1,-1,192,194,-1,-1,-1,-1,196,198,-1,-1,-1,-1,-1,-1,-1,-1,-1,-1,-1,-1,-1,-1,-1,-1,-1,-1,-1,-1,-1,-1,-1,-1,-1,-1,-1,-1,-1,-1,-1,-1,-1,-1,-1,-1,-1,-1,-1,-1,-1,-1,-1,-1,-1,-1,-1,-1,-1,-1,-1,-1,-1,-1,-1,-1,-1,-1,-1,-1,-1,-1,-1,-1],"split_conditions":[1.1859751E1,2.8425507E2,7.1548874E1,1.7965676E0,3.5797577E0,2.4264662E1,2.596E1,8.69357E1,1.1876193E0,1.5610671E0,1.1044248E3,-4.373518E-1,-5.627164E-2,2.0582476E1,2.6885276E0,4.7096353E0,5.92E0,1.5389174E2,9.847372E0,1.2289455E0,5.942058E2,2.512935E0,2.0309438E3,3.3251438E0,3.0674024E0,4.306257E-1,2.8E1,-3.6880922E-1,1.6121973E0,3.96E0,7.05435E-2,2.1404316E0,1.8438884E0,2.2012615E0,2.0178037E0,2.6787257E0,1.2539046E0,2.833291E0,8.6822485E2,4.8046167E2,3.7920834E2,2.849896E0,6.9742837E0,8.6822485E2,3.387984E0,2.6885276E0,2.2889226E3,2.800916E0,3.3882898E2,-3.394168E-1,6.2249207E1,7.809659E-1,5.327383E0,-3.285865E-1,-4.4171336E-1,-1.20426245E-1,2.505642E2,1E2,1E2,4.2941112E-2,2.1509848E0,4.2799277E2,9.4200164E-1,-1.1824858E-2,5.093385E2,2.5237265E0,2.4029455E0,3.4188545E0,3.4334528E0,4.3668003E0,2.4330223E0,6.9095736E0,2.8398702E0,4.885838E0,3.4037497E0,9.8070896E-1,3.3142226E0,1.873827E2,1.1220895E3,2.200444E3,1.5534834E3,6.992164E-1,1.1082566E0,1.5534834E3,1.859218E-1,1.1795307E0,5.4737103E-1,8.9433885E-1,1.7471904E0,-2.391349E-1,-1.0621638E-1,-1.3564742E-1,-2.790876E-1,1.5880915E0,-2.3811086E-1,6.6986287E-1,1.9580452E0,-3.7221915E-1,1.867265E0,2.0178037E0,2.3212798E0,2.0864667E-1,1.14564635E-1,3.035685E2,2.2773492E0,-1.09184146E-1,8.351288E2,2.9810938E2,1.4029456E0,2.792043E0,5.4729254E2,2.3754394E0,3.47E0,6.010161E2,3.4910889E0,2.9957116E0,1.0573392E3,2.9810938E2,4.4710568E2,2.289327E0,4.7485933E0,5.687542E-1,1.3727398E-1,7.5629215E0,5.8783716E2,6.483025E-1,2.6081368E-1,1.0318587E1,1.2168384E3,2.8800854E-1,1.2146572E-2,2.6450616E-1,4.8021588E-1,3.0259817E0,1.8111105E1,1.0793487E0,4.8696953E-1,9.9061355E-2,4.5036596E-1,2.590782E-1,5.961257E-1,3.0657496E-2,-1.4805385E-1,-3.7976497E-1,-2.6358378E-1,-1.242841E-1,-2.3126552E-1,-2.0715354E-1,-1.21761136E-1,-1.226389E-1,-2.370192E-1,-1.8032748E-2,-1.378344E-1,-3.2997245E-1,-1.9491856E-1,-4.0417064E-2,-1.15029305E-1,-3.1647286E-1,-1.2542081E-1,-3.8157545E-2,-1.6745615E-1,-1.4565337E-1,-3.1608142E-2,-9.271182E-2,-2.3998897E-1,-5.407882E-2,5.105617E-2,-2.259701E-2,-1.2486921E-1,6.122522E-2,-1.3255632E-1,1.4978889E-1,2.2513723E-2,-1.9676001E-1,4.2248038E-3,6.6774026E-2,2.1780875E-1,-1.414621E-1,3.4228931E-3,1.1060845E-1,-1.4417468E-1,6.9112875E-2,-1.5109645E-1,-1.9521769E-3,1.6981563E-1,-3.4626983E-2,8.206678E-2,6.0623143E-2,2.141144E-1,2.4001357E-1,1.8740406E-2,2.007739E-1,2.9743087E-1,2.5174922E-1,4.4751413E-2,1.3413472E-1,2.3757573E-2,3.787011E-1,2.0377555E-1],"split_indices":[3,1,1,0,3,1,3,1,3,3,1,0,0,3,0,3,3,1,3,3,1,0,1,0,0,0,3,0,0,3,0,0,0,3,0,0,3,3,1,1,1,0,3,1,0,0,1,0,1,0,1,3,3,0,0,0,1,1,1,0,0,1,3,0,1,0,0,3,0,3,0,3,0,3,0,0,0,1,1,1,1,0,0,1,0,0,0,0,0,0,0,0,0,0,0,3,0,0,0,0,0,0,0,1,0,0,1,1,3,3,1,0,3,1,3,0,1,1,1,0,3,0,0,3,1,0,0,3,1,0,0,0,0,0,3,0,0,0,0,0,0,0,0,0,0,0,0,0,0,0,0,0,0,0,0,0,0,0,0,0,0,0,0,0,0,0,0,0,0,0,0,0,0,0,0,0,0,0,0,0,0,0,0,0,0,0,0,0,0,0,0,0,0,0,0,0,0,0,0],"split_type":[0,0,0,0,0,0,0,0,0,0,0,0,0,0,0,0,0,0,0,0,0,0,0,0,0,0,0,0,0,0,0,0,0,0,0,0,0,0,0,0,0,0,0,0,0,0,0,0,0,0,0,0,0,0,0,0,0,0,0,0,0,0,0,0,0,0,0,0,0,0,0,0,0,0,0,0,0,0,0,0,0,0,0,0,0,0,0,0,0,0,0,0,0,0,0,0,0,0,0,0,0,0,0,0,0,0,0,0,0,0,0,0,0,0,0,0,0,0,0,0,0,0,0,0,0,0,0,0,0,0,0,0,0,0,0,0,0,0,0,0,0,0,0,0,0,0,0,0,0,0,0,0,0,0,0,0,0,0,0,0,0,0,0,0,0,0,0,0,0,0,0,0,0,0,0,0,0,0,0,0,0,0,0,0,0,0,0,0,0,0,0,0,0,0,0,0,0,0,0],"sum_hessian":[2.61E3,2.307E3,3.03E2,8.28E2,1.479E3,2E1,2.83E2,3E2,5.28E2,9.14E2,5.65E2,1.6E1,4E0,2.4E2,4.3E1,2.07E2,9.3E1,1.48E2,3.8E2,2.19E2,6.95E2,4.38E2,1.27E2,1.9E2,5E1,4E0,3.9E1,1.77E2,3E1,8.9E1,4E0,6E1,8.8E1,3.6E2,2E1,1.09E2,1.1E2,4.45E2,2.5E2,1.16E2,3.22E2,1.13E2,1.4E1,1.71E2,1.9E1,2.2E1,2.8E1,1.1E1,2.8E1,1.4E1,1.6E1,7.4E1,1.5E1,4.7E1,1.3E1,1.4E1,7.4E1,1.92E2,1.68E2,4E0,1.6E1,9E1,1.9E1,7E0,1.03E2,3.01E2,1.44E2,1.82E2,6.8E1,5.4E1,6.2E1,1.2E1,3.1E2,9E0,1.04E2,6E0,8E0,8.8E1,8.3E1,9E0,1E1,1.3E1,9E0,2.2E1,6E0,7E0,4E0,7E0,2.1E1,1.2E1,4E0,4E0,7E1,1E1,5E0,4.1E1,3.3E1,9E0,1.83E2,4.9E1,1.19E2,7E0,9E0,4.7E1,4.3E1,4E0,1.5E1,4.9E1,5.4E1,2.56E2,4.5E1,1.01E2,4.3E1,1.74E2,8E0,5.9E1,9E0,2.6E1,2.8E1,3.2E1,3E1,8E0,4E0,1.81E2,1.29E2,4E0,5E0,8E1,2.4E1,4E0,4E0,2.8E1,6E1,1.4E1,6.9E1,5E0,4E0,4E0,6E0,6E0,1.6E1,4E0,6E0,1.1E1,3E1,7E0,2.6E1,3.2E1,1.51E2,4E1,9E0,1E2,1.9E1,4E0,4.3E1,6E0,3.7E1,1.1E1,4E0,6E0,4.3E1,2.6E1,2.8E1,2.5E2,6E0,2.8E1,1.7E1,8.7E1,1.4E1,3.9E1,4E0,7E0,1.67E2,4E0,4E0,4.1E1,1.8E1,5E0,4E0,4E0,2.2E1,2.3E1,5E0,9E0,2.3E1,2.3E1,7E0,1.5E2,3.1E1,1E1,1.19E2,6.1E1,1.9E1,5E0,1.9E1,9E0,5E0,5.8E1,1.1E1],"tree_param":{"num_deleted":"0","num_feature":"4","num_nodes":"199","size_leaf_vector":"1"}},{"base_weights":[2.036305E-2,-3.5297647E0,2.288915E1,-1.0511646E1,6.26823E-1,-3.955832E-1,2.5135176E1,-1.5728324E1,-7.726392E0,-3.432661E0,4.3286467E0,1.9274738E1,5.857781E1,-1.8000372E1,-8.689326E0,-1.3610865E1,-4.958261E0,-5.4248576E0,-2.4519208E-1,3.6072738E0,1.7151531E1,1.7002985E1,2.7824276E1,6.426092E1,6.610851E-1,-1.7354973E1,-4.1764086E-1,-9.944367E0,1.3785392E-1,-1.184028E1,-1.745296E1,-7.0594306E0,-8.924701E-1,-8.795117E0,-4.6146927E0,-5.4314218E0,1.6170738E0,1.8330482E0,5.992729E0,2.5470648E1,6.0008583E0,1.7394512E1,8.086277E-2,3.517079E1,2.0739271E1,4.665266E1,1.6436415E0,-3.8030028E-1,-2.996428E-1,-1.2792797E1,-7.6171465E0,-1.3075754E1,-9.133394E0,-1.8307392E1,-1.5237327E-1,2.641677E-1,-7.5349984E0,-1.6219591E0,6.3102107E0,-7.4102273E0,-1.4173967E1,8.783685E-2,-4.7933927E0,2.0118006E-2,-6.678947E0,2.133096E0,-5.6107016E0,7.430738E-1,5.4525E0,6.5935645E0,-5.2576566E-1,1.561312E-1,3.0174995E1,-1.4035165E0,3.0998534E-1,1.1591786E1,1.8353645E1,2.789739E1,1.2297257E0,1.4034361E1,3.221461E1,5.057169E1,4.6211252E-1,-1.7574531E-1,-2.8257844E-1,-1.1169272E1,-5.0175E0,-2.9816273E-1,-1.1721531E1,-9.64092E-2,-9.990542E0,-4.053899E-1,-1.479376E1,-1.1301027E1,-6.0554585E0,-0E0,-5.803773E0,6.738642E-2,1.7199095E-1,-9.173557E0,-4.886316E0,-1.3471241E-1,-3.4331158E-1,-4.253996E0,-7.862473E0,-7.1690593E0,-2.2929268E-2,-7.938631E-1,3.1478274E0,-7.7585626E0,-1.0288235E-2,-1.6419218E0,1.6791297E0,7.492796E0,-1.8738879E0,5.5312524E0,9.769163E0,8.7367E-1,-9.052373E-2,8.73747E-1,1.629361E1,4.2680673E-2,-7.613957E-2,1.3253025E1,8.233374E0,2.4754648E1,1.6439804E1,2.5891134E-1,3.2381233E1,1.8608105E1,2.996076E-2,8.8313454E-1,3.8010588E-1,5.24921E-1,1.1121716E0,-3.7084527E-2,-2.8149536E-1,-5.9000254E-2,-2.517889E-1,-1.6269265E-1,-2.5389475E-1,-2.1299413E-1,-7.858886E-2,-1.8726656E-1,-3.766043E-1,-2.375423E-1,-1.1000491E-1,-1.01045966E-1,-2.3255664E-1,-7.404272E-2,3.7067335E-2,-1.5897124E-1,1.5377517E-1,-2.0112875E-1,-5.691874E-2,-2.7780397E-2,-1.18228175E-1,-1.1571101E-1,-5.707695E-2,-1.3571936E-1,-2.6242295E-1,-1.6939886E-1,-8.2780205E-2,6.2141657E-2,-5.8498047E-2,1.1363585E-1,3.6797374E-2,-8.1818454E-2,-1.953298E-1,7.568243E-2,-4.7860116E-2,3.977303E-2,-1.1751915E-1,2.5111467E-1,9.166043E-2,7.664385E-2,-6.9473654E-2,2.5335458E-1,1.0505026E-1,2.8852516E-1,1.0167279E-1,-7.88213E-2,6.514408E-2,1.7868593E-1,4.3516123E-1,1.2527125E-1,2.899479E-1,8.851055E-3,2.2502893E-1,4.4178435E-1,6.893655E-1,-4.365879E-2,3.5348123E-1,7.057144E-1,3.6490643E-1,1.7443222E-1,5.053706E-1],"categories":[],"categories_nodes":[],"categories_segments":[],"categories_sizes":[],"default_left":[0,0,0,0,0,0,0,0,0,0,0,0,0,0,0,0,0,0,0,0,0,0,0,0,0,0,0,0,0,0,0,0,0,0,0,0,0,0,0,0,0,0,0,0,0,0,0,0,0,0,0,0,0,0,0,0,0,0,0,0,0,0,0,0,0,0,0,0,0,0,0,0,0,0,0,0,0,0,0,0,0,0,0,0,0,0,0,0,0,0,0,0,0,0,0,0,0,0,0,0,0,0,0,0,0,0,0,0,0,0,0,0,0,0,0,0,0,0,0,0,0,0,0,0,0,0,0,0,0,0,0,0,0,0,0,0,0,0,0,0,0,0,0,0,0,0,0,0,0,0,0,0,0,0,0,0,0,0,0,0,0,0,0,0,0,0,0,0,0,0,0,0,0,0,0,0,0,0,0,0,0,0,0,0,0,0,0,0,0,0,0,0,0,0,0,0,0],"id":4,"left_children":[1,3,5,7,9,-1,11,13,15,17,19,21,23,25,27,29,31,33,35,37,39,41,43,45,-1,47,-1,49,-1,51,53,55,57,59,61,63,65,67,69,71,73,75,-1,77,79,81,-1,-1,-1,83,85,87,89,91,-1,-1,93,95,97,99,101,-1,103,-1,105,107,109,111,113,115,117,-1,119,121,-1,123,125,127,-1,129,131,133,-1,-1,-1,135,137,-1,139,-1,141,-1,143,145,147,149,151,-1,-1,153,155,-1,-1,157,159,161,-1,163,165,167,-1,169,171,173,175,177,179,181,-1,-1,183,-1,-1,185,187,189,191,-1,193,195,-1,-1,-1,-1,-1,-1,-1,-1,-1,-1,-1,-1,-1,-1,-1,-1,-1,-1,-1,-1,-1,-1,-1,-1,-1,-1,-1,-1,-1,-1,-1,-1,-1,-1,-1,-1,-1,-1,-1,-1,-1,-1,-1,-1,-1,-1,-1,-1,-1,-1,-1,-1,-1,-1,-1,-1,-1,-1,-1,-1,-1,-1,-1,-1,-1,-1,-1],"loss_changes":[2.10853E5,6.5250703E4,3.394617E4,1.2056281E4,2.1204111E4,0E0,6.389703E4,4.483133E3,8.865141E3,4.269201E3,6.7534814E3,5.0186797E3,4.9309688E3,2.4242188E1,1.4977852E3,9.680156E2,3.192999E3,1.082585E3,2.521959E3,2.9474238E3,3.4479463E3,1.0699141E3,2.2592969E3,8.403266E3,0E0,4.2547266E2,0E0,3.4230078E2,0E0,2.7992773E2,2.9187012E2,2.4772266E3,6.855049E2,4.71792E2,5.620508E2,5.639015E2,7.261914E2,1.5824818E3,1.173873E3,1.572082E3,1.295301E3,9.955078E2,0E0,3.4043125E3,1.9850293E3,8.2191406E2,0E0,0E0,0E0,1.8675293E1,3.0458838E2,1.4353516E1,9.910962E1,1.2120117E1,0E0,0E0,1.2706162E3,8.0113605E2,4.53544E1,2.3686475E2,2.052622E2,0E0,5.0630908E2,0E0,1.4455957E2,5.383839E2,1.3384106E2,6.9708124E2,1.4072395E3,8.586631E2,1.5148337E2,0E0,2.4444795E3,1.0255366E2,0E0,6.89707E1,1.8616406E3,1.0982871E3,0E0,1.2227017E3,8.619004E2,7.017578E2,0E0,0E0,0E0,3.9833777E2,3.458423E2,0E0,6.700586E1,0E0,8.61189E1,0E0,2.687754E2,1.4918652E2,9.160825E2,5.966967E2,1.01622974E3,0E0,0E0,1.711145E2,9.181323E1,0E0,0E0,5.856904E2,1.7193774E2,1.6704639E2,0E0,3.9970377E2,4.2960352E2,1.8842224E1,0E0,3.6694073E2,5.334017E2,1.0086382E3,2.0481793E2,3.3555322E2,1.3781289E3,2.4198926E2,0E0,0E0,1.9117944E2,0E0,0E0,8.0630615E1,3.1789154E2,2.6961328E2,3.4257812E3,0E0,2.5271484E1,8.1483545E2,0E0,0E0,0E0,0E0,0E0,0E0,0E0,0E0,0E0,0E0,0E0,0E0,0E0,0E0,0E0,0E0,0E0,0E0,0E0,0E0,0E0,0E0,0E0,0E0,0E0,0E0,0E0,0E0,0E0,0E0,0E0,0E0,0E0,0E0,0E0,0E0,0E0,0E0,0E0,0E0,0E0,0E0,0E0,0E0,0E0,0E0,0E0,0E0,0E0,0E0,0E0,0E0,0E0,0E0,0E0,0E0,0E0,0E0,0E0,0E0,0E0,0E0,0E0,0E0,0E0,0E0,0E0],"parents":[2147483647,0,0,1,1,2,2,3,3,4,4,6,6,7,7,8,8,9,9,10,10,11,11,12,12,13,13,14,14,15,15,16,16,17,17,18,18,19,19,20,20,21,21,22,22,23,23,25,25,27,27,29,29,30,30,31,31,32,32,33,33,34,34,35,35,36,36,37,37,38,38,39,39,40,40,41,41,43,43,44,44,45,45,49,49,50,50,51,51,52,52,53,53,56,56,57,57,58,58,59,59,60,60,62,62,64,64,65,65,66,66,67,67,68,68,69,69,70,70,72,72,73,73,75,75,76,76,77,77,79,79,80,80,81,81,85,85,86,86,88,88,90,90,92,92,93,93,94,94,95,95,96,96,99,99,100,100,103,103,104,104,105,105,107,107,108,108,109,109,111,111,112,112,113,113,114,114,115,115,116,116,117,117,120,120,123,123,124,124,125,125,126,126,128,128,129,129],"right_children":[2,4,6,8,10,-1,12,14,16,18,20,22,24,26,28,30,32,34,36,38,40,42,44,46,-1,48,-1,50,-1,52,54,56,58,60,62,64,66,68,70,72,74,76,-1,78,80,82,-1,-1,-1,84,86,88,90,92,-1,-1,94,96,98,100,102,-1,104,-1,106,108,110,112,114,116,118,-1,120,122,-1,124,126,128,-1,130,132,134,-1,-1,-1,136,138,-1,140,-1,142,-1,144,146,148,150,152,-1,-1,154,156,-1,-1,158,160,162,-1,164,166,168,-1,170,172,174,176,178,180,182,-1,-1,184,-1,-1,186,188,190,192,-1,194,196,-1,-1,-1,-1,-1,-1,-1,-1,-1,-1,-1,-1,-1,-1,-1,-1,-1,-1,-1,-1,-1,-1,-1,-1,-1,-1,-1,-1,-1,-1,-1,-1,-1,-1,-1,-1,-1,-1,-1,-1,-1,-1,-1,-1,-1,-1,-1,-1,-1,-1,-1,-1,-1,-1,-1,-1,-1,-1,-1,-1,-1,-1,-1,-1,-1,-1,-1],"split_conditions":[1.1114016E1,2.8425507E2,4.0024883E-1,9.108927E1,2.9012358E0,-3.955832E-1,2.4401669E1,4.885838E0,1.2392064E0,5.691587E2,1.5100894E3,1.9814486E1,7.663779E2,8.124476E-1,9.847372E0,1.1704584E0,2.6791496E0,1.2289455E0,1.5610671E0,7.5038446E2,6.7700324E0,2.4588328E3,4.5290074E0,3.8217435E2,6.610851E-1,1.4892967E-1,-4.1764086E-1,5.6342053E-1,1.3785392E-1,2.0159491E2,2.61672E2,1.2539046E0,9.565188E0,2.4236274E0,1.2539046E0,1.9175828E0,2.833291E0,5.0052786E0,9.259973E0,4.885838E0,2.0817754E3,1.873827E2,8.086277E-2,4.2485562E2,8.10649E0,3.174E1,1.6436415E0,-3.8030028E-1,-2.996428E-1,5.557414E0,6.1987543E0,1.4538834E2,2.2247507E2,1.9456255E2,-1.5237327E-1,2.641677E-1,5.795469E-1,1.2889607E0,1.052835E1,4.2799277E2,3.8217435E2,8.783685E-2,2.0282698E0,2.0118006E-2,5.5489902E0,6.522815E2,2.4081264E0,1.3530715E0,3.5574424E0,1.1044248E3,1.1337539E1,1.561312E-1,7.1005917E0,8.456737E0,3.0998534E-1,1.3956683E1,3.3276062E0,1.7538622E2,1.2297257E0,7.571068E0,2.248E1,2.3498712E2,4.6211252E-1,-1.7574531E-1,-2.8257844E-1,6.911013E-1,1.2101382E0,-2.9816273E-1,1.5696082E2,-9.64092E-2,1.1876193E0,-4.053899E-1,2.4940116E0,2.3193707E0,1.400643E0,4.3929458E-1,3.099906E0,6.738642E-2,1.7199095E-1,1.1876193E0,4.6931952E2,-1.3471241E-1,-3.4331158E-1,1.9295189E0,5.6172015E2,1.3643615E0,-2.2929268E-2,1.8236402E0,2.4940116E0,6.0620514E2,-1.0288235E-2,3.035685E2,7.395595E2,4.1197006E2,5.327383E0,7.5731525E2,6.3862844E0,5.0052786E0,-9.052373E-2,8.73747E-1,4.942738E0,4.2680673E-2,-7.613957E-2,1.163564E1,2.1787567E0,3.0647585E0,3.8287954E0,2.5891134E-1,3.035685E2,1.5534834E3,2.996076E-2,8.8313454E-1,3.8010588E-1,5.24921E-1,1.1121716E0,-3.7084527E-2,-2.8149536E-1,-5.9000254E-2,-2.517889E-1,-1.6269265E-1,-2.5389475E-1,-2.1299413E-1,-7.858886E-2,-1.8726656E-1,-3.766043E-1,-2.375423E-1,-1.1000491E-1,-1.01045966E-1,-2.3255664E-1,-7.404272E-2,3.7067335E-2,-1.5897124E-1,1.5377517E-1,-2.0112875E-1,-5.691874E-2,-2.7780397E-2,-1.18228175E-1,-1.1571101E-1,-5.707695E-2,-1.3571936E-1,-2.6242295E-1,-1.6939886E-1,-8.2780205E-2,6.2141657E-2,-5.8498047E-2,1.1363585E-1,3.6797374E-2,-8.1818454E-2,-1.953298E-1,7.568243E-2,-4.7860116E-2,3.977303E-2,-1.1751915E-1,2.5111467E-1,9.166043E-2,7.664385E-2,-6.9473654E-2,2.5335458E-1,1.0505026E-1,2.8852516E-1,1.0167279E-1,-7.88213E-2,6.514408E-2,1.7868593E-1,4.3516123E-1,1.2527125E-1,2.899479E-1,8.851055E-3,2.2502893E-1,4.4178435E-1,6.893655E-1,-4.365879E-2,3.5348123E-1,7.057144E-1,3.6490643E-1,1.7443222E-1,5.053706E-1],"split_indices":[3,1,2,1,3,0,3,3,3,1,1,3,1,2,3,2,3,3,3,1,2,1,2,1,0,2,0,2,0,1,1,3,3,2,3,2,3,3,2,3,1,1,0,1,2,3,0,0,0,3,3,1,1,1,0,0,2,2,3,1,1,0,2,0,2,1,2,2,2,1,2,0,3,2,0,3,2,1,0,2,3,1,0,0,0,2,2,0,1,0,3,0,2,3,2,2,2,0,0,3,1,0,0,3,1,3,0,2,2,1,0,1,1,1,3,1,3,3,0,0,2,0,0,3,2,2,2,0,1,1,0,0,0,0,0,0,0,0,0,0,0,0,0,0,0,0,0,0,0,0,0,0,0,0,0,0,0,0,0,0,0,0,0,0,0,0,0,0,0,0,0,0,0,0,0,0,0,0,0,0,0,0,0,0,0,0,0,0,0,0,0,0,0,0,0,0,0],"split_type":[0,0,0,0,0,0,0,0,0,0,0,0,0,0,0,0,0,0,0,0,0,0,0,0,0,0,0,0,0,0,0,0,0,0,0,0,0,0,0,0,0,0,0,0,0,0,0,0,0,0,0,0,0,0,0,0,0,0,0,0,0,0,0,0,0,0,0,0,0,0,0,0,0,0,0,0,0,0,0,0,0,0,0,0,0,0,0,0,0,0,0,0,0,0,0,0,0,0,0,0,0,0,0,0,0,0,0,0,0,0,0,0,0,0,0,0,0,0,0,0,0,0,0,0,0,0,0,0,0,0,0,0,0,0,0,0,0,0,0,0,0,0,0,0,0,0,0,0,0,0,0,0,0,0,0,0,0,0,0,0,0,0,0,0,0,0,0,0,0,0,0,0,0,0,0,0,0,0,0,0,0,0,0,0,0,0,0,0,0,0,0,0,0,0,0,0,0],"sum_hessian":[2.595E3,2.247E3,3.48E2,8.38E2,1.409E3,1.7E1,3.31E2,2.9E2,5.48E2,6.72E2,7.37E2,2.83E2,4.8E1,2.18E2,7.2E1,1.74E2,3.74E2,4.13E2,2.59E2,6.99E2,3.8E1,2.26E2,5.7E1,3.8E1,1E1,1.84E2,3.4E1,6.7E1,5E0,1.22E2,5.2E1,2.46E2,1.28E2,7.8E1,3.35E2,6.8E1,1.91E2,4.02E2,2.97E2,2.1E1,1.7E1,2.19E2,7E0,2.6E1,3.1E1,2.1E1,1.7E1,1.04E2,8E1,2.8E1,3.9E1,8.1E1,4.1E1,4.7E1,5E0,5E0,2.41E2,1.17E2,1.1E1,6.4E1,1.4E1,6E0,3.29E2,1.1E1,5.7E1,1.79E2,1.2E1,3.1E2,9.2E1,2.72E2,2.5E1,5E0,1.6E1,1E1,7E0,3.3E1,1.86E2,2.2E1,4E0,2.1E1,1E1,1.7E1,4E0,9E0,1.9E1,1.5E1,2.4E1,3E1,5.1E1,8E0,3.3E1,2.7E1,2E1,6.6E1,1.75E2,8.5E1,3.2E1,6E0,5E0,3.6E1,2.8E1,5E0,9E0,2.82E2,4.7E1,5.2E1,5E0,4.6E1,1.33E2,8E0,4E0,8.7E1,2.23E2,7.2E1,2E1,2.06E2,6.6E1,1.9E1,6E0,7E0,9E0,4E0,6E0,2E1,1.3E1,4E1,1.46E2,6E0,1.6E1,1.5E1,6E0,4E0,6E0,4E0,1.3E1,4E0,1.1E1,2E1,4E0,1.3E1,3.8E1,2.9E1,4E0,1E1,1E1,5.9E1,7E0,1.5E2,2.5E1,2.8E1,5.7E1,2.8E1,4E0,3.1E1,5E0,7E0,2.1E1,1.33E2,1.49E2,4.1E1,6E0,3.5E1,1.7E1,1.6E1,3E1,4.4E1,8.9E1,4E0,4E0,1E1,7.7E1,2.15E2,8E0,2.5E1,4.7E1,4E0,1.6E1,6E0,2E2,3.2E1,3.4E1,6E0,1.3E1,5E0,4E0,4E0,1.6E1,4E0,9E0,3.4E1,6E0,9E0,1.37E2,1.2E1,4E0,7E0,8E0],"tree_param":{"num_deleted":"0","num_feature":"4","num_nodes":"197","size_leaf_vector":"1"}},{"base_weights":[-1.5755944E-2,-7.2824936E0,8.453565E0,-1.3076204E1,-3.8304338E0,4.794146E0,1.4617362E1,-1.6541552E1,-9.463488E0,-3.3479953E0,-1.2246842E1,1.1513796E1,3.3703384E0,4.076413E1,1.1645387E1,-1.8728504E1,-1.4854324E1,-1.1293649E1,-5.19004E0,-3.6340868E0,4.1163654E0,-3.4538814E-1,-5.7298646E0,-3.989755E0,1.6365194E1,2.9900365E0,2.6291813E1,-3.2057633E0,5.037237E1,5.989543E0,1.5653918E1,-2.0327555E1,-3.3025795E-1,-1.360576E1,-4.0406567E-1,-1.02382345E1,-3.2762045E-1,-5.7726197E0,8.957323E-2,-6.5179014E-1,-4.1906657E0,9.518317E-1,5.5522466E0,-8.117121E0,7.8044586E-2,-8.359261E0,3.9443593E0,1.4423345E0,1.8572262E1,-7.306034E-2,5.1012964E0,7.023779E-1,2.0665899E-1,-0E0,-1.1724438E-1,4.259827E1,1.3953065E0,9.569525E0,2.7745643E0,1.7182013E1,3.282161E0,-4.2105243E-1,-2.5831074E-1,-2.843069E-1,-5.2351005E-2,-5.065741E0,-1.1171575E1,-8.1124525E0,-4.7644534E0,-6.490359E0,2.303154E0,-9.950941E0,-3.8197799E0,8.717884E-2,-5.047834E-2,2.3629342E-1,3.3519895E0,3.9180193E-2,-1.2184787E1,-1.058546E1,-4.6350196E-2,1.303258E-1,2.1984488E-2,8.165322E0,-2.4368215E-1,1.5029558E1,2.8965065E1,-1.7747779E0,1.9828175E0,-1.9997361E-1,5.471264E0,4.684422E1,2.548176E-1,3.8933947E0,2.8558998E1,4.373517E0,-1.3087623E0,-8.9320916E-1,1.8006685E1,-9.8850965E-1,4.4757628E-1,-6.9006066E0,7.091684E-2,-1.1718899E1,-6.608333E0,-6.957345E-2,-1.7932723E-1,-3.4676428E0,-7.6749525E0,-2.3602397E0,-1.2636409E1,2.288296E-2,8.425498E0,-1.0715657E1,-7.48322E-2,-4.723881E0,-2.74284E0,5.0132127E0,3.7099537E-3,-3.2796252E-1,-8.430178E0,-2.5257418E-1,-1.2738146E-1,-3.3770435E-2,3.0211943E-1,1.911659E1,-1.7696803E0,3.409023E1,3.2615787E-1,6.617672E0,-2.704854E0,2.2944914E-1,1.5285356E0,5.651058E0,-1.6273119E-1,1.1089271E0,2.054611E-1,1.0008336E0,5.280108E-1,3.8810455E1,2.9953485E-2,3.8029456E0,2.070357E-1,4.3808155E0,-5.8091736E0,-1.2494592E-1,7.2547965E-2,7.9134476E-1,1.735874E1,-1.4555524E-1,1.1328251E0,-1.6315351E-1,-2.2768993E-2,-2.1073924E-1,-2.6465032E-1,8.0866955E-2,-2.1081679E-1,2.0187458E-2,-1.0023254E-1,-1.1440486E-1,-2.1446529E-1,-1.929236E-1,4.92253E-2,-3.5724986E-1,-1.4275801E-1,2.1902373E-2,-2.5052148E-1,7.9878315E-2,2.0973495E-1,-2.3679458E-1,-1.4275411E-1,-5.3221446E-2,-1.5530004E-1,2.0657745E-1,-6.0168814E-2,3.255357E-2,1.327627E-1,-7.87934E-2,-2.2253297E-1,4.0351316E-1,2.3039016E-1,-1.7874652E-1,1.837347E-1,2.9192474E-1,8.0748403E-1,-1.5952324E-2,2.469268E-1,3.061556E-2,-7.259314E-2,4.681152E-2,-3.6029417E-2,4.0103234E-2,1.2303599E-1,9.215373E-2,-7.2687425E-2,9.6669364E-1,2.7593508E-1,1.307671E-1,4.3797925E-2,-2.8438221E-3,1.3455185E-1,-1.9052352E-1,-7.084859E-2,4.9792343E-1,3.2405886E-1,7.085467E-2,-3.2214407E-2],"categories":[],"categories_nodes":[],"categories_segments":[],"categories_sizes":[],"default_left":[0,0,0,0,0,0,0,0,0,0,0,0,0,0,0,0,0,0,0,0,0,0,0,0,0,0,0,0,0,0,0,0,0,0,0,0,0,0,0,0,0,0,0,0,0,0,0,0,0,0,0,0,0,0,0,0,0,0,0,0,0,0,0,0,0,0,0,0,0,0,0,0,0,0,0,0,0,0,0,0,0,0,0,0,0,0,0,0,0,0,0,0,0,0,0,0,0,0,0,0,0,0,0,0,0,0,0,0,0,0,0,0,0,0,0,0,0,0,0,0,0,0,0,0,0,0,0,0,0,0,0,0,0,0,0,0,0,0,0,0,0,0,0,0,0,0,0,0,0,0,0,0,0,0,0,0,0,0,0,0,0,0,0,0,0,0,0,0,0,0,0,0,0,0,0,0,0,0,0,0,0,0,0,0,0,0,0,0,0,0,0,0,0,0,0,0,0,0,0,0,0,0,0,0,0,0,0],"id":5,"left_children":[1,3,5,7,9,11,13,15,17,19,21,23,25,27,29,31,33,35,37,39,41,-1,43,45,47,49,51,53,55,57,59,61,-1,63,-1,65,-1,67,-1,69,71,73,75,77,-1,79,81,83,85,87,89,-1,-1,-1,-1,91,-1,93,95,97,99,-1,-1,-1,-1,101,103,105,107,109,111,113,115,-1,-1,-1,117,-1,119,121,-1,-1,-1,123,-1,125,127,129,131,-1,133,135,-1,137,139,141,143,145,147,149,-1,151,-1,153,155,-1,-1,157,159,161,163,165,167,169,-1,171,173,175,-1,-1,177,-1,-1,-1,-1,179,181,183,-1,185,187,-1,189,191,-1,-1,-1,193,-1,195,-1,197,-1,199,201,-1,-1,-1,203,-1,205,-1,-1,-1,-1,-1,-1,-1,-1,-1,-1,-1,-1,-1,-1,-1,-1,-1,-1,-1,-1,-1,-1,-1,-1,-1,-1,-1,-1,-1,-1,-1,-1,-1,-1,-1,-1,-1,-1,-1,-1,-1,-1,-1,-1,-1,-1,-1,-1,-1,-1,-1,-1,-1,-1,-1,-1],"loss_changes":[1.5939922E5,2.7821102E4,2.6896305E4,6.3394688E3,3.5034268E3,7.147908E3,3.4076844E4,6.7778906E2,1.9425078E3,1.7850205E3,1.4270303E3,9.924996E3,5.327599E3,1.919825E4,8.985875E3,3.769922E1,7.3535547E2,7.790137E2,4.7154248E2,1.3209004E3,1.3206366E2,0E0,5.3982495E2,1.144737E3,3.2559805E3,3.9673545E3,1.02127637E3,7.933579E1,2.545664E3,1.9003901E3,4.356375E3,3.2203125E1,0E0,8.110781E2,0E0,6.636201E2,0E0,1.3131567E2,0E0,2.2082952E3,1.3923545E3,1.4225737E2,2.4156519E2,7.671461E2,0E0,2.5095337E2,7.653462E1,1.3798627E3,2.7441309E3,8.815361E2,2.0801611E3,0E0,0E0,0E0,0E0,3.0474023E3,0E0,8.386436E3,5.94993E2,3.1258086E3,2.2356714E3,0E0,0E0,0E0,0E0,4.213075E2,2.2985254E2,4.5182007E1,1.7495923E2,1.0535853E3,1.1818964E3,1.4203467E2,6.003125E2,0E0,0E0,0E0,8.5687E1,0E0,5.4006348E1,3.8535034E1,0E0,0E0,0E0,7.1667303E2,0E0,4.6433535E3,7.7911914E2,1.0929622E3,4.668942E2,0E0,9.131846E2,7.259664E3,0E0,3.9951853E3,4.913633E3,1.7470605E2,6.919617E2,2.6611343E2,2.0624648E3,3.1841974E2,0E0,1.3780505E2,0E0,4.8101562E1,7.163337E2,0E0,0E0,2.8371747E2,2.5117859E1,9.7611005E2,3.4750537E2,8.5523755E2,1.6039294E2,4.6009277E1,0E0,2.1254316E3,1.0409033E3,4.524524E1,0E0,0E0,5.7005554E1,0E0,0E0,0E0,0E0,1.8494531E2,1.1814142E3,1.095999E3,0E0,6.108002E2,4.9633008E2,0E0,3.0195865E2,6.240635E2,0E0,0E0,0E0,9.5350775E2,0E0,2.3966582E3,0E0,2.5012189E2,0E0,1.318866E2,8.557956E1,0E0,0E0,0E0,1.2732031E3,0E0,1.25760124E2,0E0,0E0,0E0,0E0,0E0,0E0,0E0,0E0,0E0,0E0,0E0,0E0,0E0,0E0,0E0,0E0,0E0,0E0,0E0,0E0,0E0,0E0,0E0,0E0,0E0,0E0,0E0,0E0,0E0,0E0,0E0,0E0,0E0,0E0,0E0,0E0,0E0,0E0,0E0,0E0,0E0,0E0,0E0,0E0,0E0,0E0,0E0,0E0,0E0,0E0,0E0,0E0,0E0,0E0,0E0,0E0],"parents":[2147483647,0,0,1,1,2,2,3,3,4,4,5,5,6,6,7,7,8,8,9,9,10,10,11,11,12,12,13,13,14,14,15,15,16,16,17,17,18,18,19,19,20,20,22,22,23,23,24,24,25,25,26,26,27,27,28,28,29,29,30,30,31,31,33,33,35,35,37,37,39,39,40,40,41,41,42,42,43,43,45,45,46,46,47,47,48,48,49,49,50,50,55,55,57,57,58,58,59,59,60,60,65,65,66,66,67,67,68,68,69,69,70,70,71,71,72,72,76,76,78,78,79,79,83,83,85,85,86,86,87,87,88,88,90,90,91,91,93,93,94,94,95,95,96,96,97,97,98,98,99,99,101,101,103,103,104,104,107,107,108,108,109,109,110,110,111,111,112,112,113,113,115,115,116,116,117,117,120,120,125,125,126,126,127,127,129,129,130,130,132,132,133,133,137,137,139,139,141,141,143,143,144,144,148,148,150,150],"right_children":[2,4,6,8,10,12,14,16,18,20,22,24,26,28,30,32,34,36,38,40,42,-1,44,46,48,50,52,54,56,58,60,62,-1,64,-1,66,-1,68,-1,70,72,74,76,78,-1,80,82,84,86,88,90,-1,-1,-1,-1,92,-1,94,96,98,100,-1,-1,-1,-1,102,104,106,108,110,112,114,116,-1,-1,-1,118,-1,120,122,-1,-1,-1,124,-1,126,128,130,132,-1,134,136,-1,138,140,142,144,146,148,150,-1,152,-1,154,156,-1,-1,158,160,162,164,166,168,170,-1,172,174,176,-1,-1,178,-1,-1,-1,-1,180,182,184,-1,186,188,-1,190,192,-1,-1,-1,194,-1,196,-1,198,-1,200,202,-1,-1,-1,204,-1,206,-1,-1,-1,-1,-1,-1,-1,-1,-1,-1,-1,-1,-1,-1,-1,-1,-1,-1,-1,-1,-1,-1,-1,-1,-1,-1,-1,-1,-1,-1,-1,-1,-1,-1,-1,-1,-1,-1,-1,-1,-1,-1,-1,-1,-1,-1,-1,-1,-1,-1,-1,-1,-1,-1,-1,-1],"split_conditions":[2.4137974E0,1.9225456E0,4.090757E0,9.108927E1,2.524889E0,3.8666672E2,5.3014044E2,1.1785113E-1,2.0870291E2,6.467732E2,2.2924876E0,2.0282698E0,1.3720038E3,2.7348711E0,1.1220895E3,1.3609641E0,8.942504E-1,8.2987696E-1,3.1027472E2,1.873827E2,1.538331E0,-3.4538814E-1,2.3854525E0,1.65164E0,1.6296756E2,2.635875E0,3.5164757E0,2.5318944E2,4.2799277E2,8.7952234E2,9.707817E0,6.9127045E1,-3.3025795E-1,1.8757136E0,-4.0406567E-1,1.6423714E0,-3.2762045E-1,5.914103E-1,8.957323E-2,9.544468E1,6.29777E-1,1.4517028E0,1.6212499E0,2.3392744E0,7.8044586E-2,2.5951579E0,2.8425507E2,2.5073922E0,3.2049203E0,6.409571E2,1.2889607E0,7.023779E-1,2.0665899E-1,-0E0,-1.1724438E-1,6.066021E0,1.3953065E0,3.0259817E0,6.3972087E0,2.9112835E0,2.135392E3,-4.2105243E-1,-2.5831074E-1,-2.843069E-1,-5.2351005E-2,1.6143309E0,6.3963926E-1,2.136119E2,7.3386514E-1,1.3530715E0,2.2445076E0,2.3024611E0,2.2445076E0,8.717884E-2,-5.047834E-2,2.3629342E-1,2.1213202E0,3.9180193E-2,2.4494722E2,2.70274E2,-4.6350196E-2,1.303258E-1,2.1984488E-2,2.7130096E0,-2.4368215E-1,2.635875E0,2.8990588E2,2.4330223E0,6.522815E2,-1.9997361E-1,3.5333855E0,2.971982E0,2.548176E-1,8.274829E2,7.896104E2,3.2619584E0,3.2619584E0,2.7178116E0,2.9857528E0,3.3594816E0,4.4757628E-1,1.4538834E2,7.091684E-2,1.8438884E0,1.3291968E2,-6.957345E-2,-1.7932723E-1,1.8560659E0,1.1257788E0,9.04262E-1,6.482892E1,1.7888789E0,1.4517028E0,2.6789786E2,-7.48322E-2,1.0827816E0,2.0625053E2,1.9175828E0,3.7099537E-3,-3.2796252E-1,2.363862E0,-2.5257418E-1,-1.2738146E-1,-3.3770435E-2,3.0211943E-1,2.5712128E0,2.9296045E2,2.5840836E0,3.2615787E-1,4.942956E2,4.5109433E2,2.2944914E-1,3.0147793E0,2.0371673E0,-1.6273119E-1,1.1089271E0,2.054611E-1,2.8451762E0,5.280108E-1,3.1999002E0,2.9953485E-2,2.9228902E0,2.070357E-1,9.1874603E2,7.085949E0,-1.2494592E-1,7.2547965E-2,7.9134476E-1,1.2168384E3,-1.4555524E-1,3.4898958E0,-1.6315351E-1,-2.2768993E-2,-2.1073924E-1,-2.6465032E-1,8.0866955E-2,-2.1081679E-1,2.0187458E-2,-1.0023254E-1,-1.1440486E-1,-2.1446529E-1,-1.929236E-1,4.92253E-2,-3.5724986E-1,-1.4275801E-1,2.1902373E-2,-2.5052148E-1,7.9878315E-2,2.0973495E-1,-2.3679458E-1,-1.4275411E-1,-5.3221446E-2,-1.5530004E-1,2.0657745E-1,-6.0168814E-2,3.255357E-2,1.327627E-1,-7.87934E-2,-2.2253297E-1,4.0351316E-1,2.3039016E-1,-1.7874652E-1,1.837347E-1,2.9192474E-1,8.0748403E-1,-1.5952324E-2,2.469268E-1,3.061556E-2,-7.259314E-2,4.681152E-2,-3.6029417E-2,4.0103234E-2,1.2303599E-1,9.215373E-2,-7.2687425E-2,9.6669364E-1,2.7593508E-1,1.307671E-1,4.3797925E-2,-2.8438221E-3,1.3455185E-1,-1.9052352E-1,-7.084859E-2,4.9792343E-1,3.2405886E-1,7.085467E-2,-3.2214407E-2],"split_indices":[0,0,2,1,2,1,1,2,1,1,0,2,1,0,1,0,2,2,1,1,2,0,0,2,1,0,2,1,1,1,2,1,0,0,0,0,0,2,0,1,2,2,2,0,0,0,1,0,2,1,2,0,0,0,0,2,0,0,2,0,1,0,0,0,0,0,2,1,2,2,0,0,0,0,0,0,2,0,1,1,0,0,0,2,0,0,1,0,1,0,0,0,0,1,1,0,0,0,0,0,0,1,0,0,1,0,0,0,2,2,1,2,2,1,0,2,1,2,0,0,0,0,0,0,0,0,1,0,0,1,1,0,2,2,0,0,0,0,0,0,0,0,0,1,2,0,0,0,1,0,0,0,0,0,0,0,0,0,0,0,0,0,0,0,0,0,0,0,0,0,0,0,0,0,0,0,0,0,0,0,0,0,0,0,0,0,0,0,0,0,0,0,0,0,0,0,0,0,0,0,0,0,0,0,0,0,0],"split_type":[0,0,0,0,0,0,0,0,0,0,0,0,0,0,0,0,0,0,0,0,0,0,0,0,0,0,0,0,0,0,0,0,0,0,0,0,0,0,0,0,0,0,0,0,0,0,0,0,0,0,0,0,0,0,0,0,0,0,0,0,0,0,0,0,0,0,0,0,0,0,0,0,0,0,0,0,0,0,0,0,0,0,0,0,0,0,0,0,0,0,0,0,0,0,0,0,0,0,0,0,0,0,0,0,0,0,0,0,0,0,0,0,0,0,0,0,0,0,0,0,0,0,0,0,0,0,0,0,0,0,0,0,0,0,0,0,0,0,0,0,0,0,0,0,0,0,0,0,0,0,0,0,0,0,0,0,0,0,0,0,0,0,0,0,0,0,0,0,0,0,0,0,0,0,0,0,0,0,0,0,0,0,0,0,0,0,0,0,0,0,0,0,0,0,0,0,0,0,0,0,0,0,0,0,0,0,0],"sum_hessian":[2.588E3,1.393E3,1.195E3,5.19E2,8.74E2,7.51E2,4.44E2,2.63E2,2.56E2,8.28E2,4.6E1,1.3E2,6.21E2,4.4E1,4E2,1.1E2,1.53E2,1.78E2,7.8E1,7.98E2,3E1,2.5E1,2.1E1,3.1E1,9.9E1,6.12E2,9E0,8E0,3.6E1,1.67E2,2.33E2,5.9E1,5.1E1,1.27E2,2.6E1,1.5E2,2.8E1,7.4E1,4E0,1.26E2,6.72E2,1E1,2E1,1.7E1,4E0,2E1,1.1E1,1.3E1,8.6E1,2.5E2,3.62E2,5E0,4E0,4E0,4E0,2.8E1,8E0,7.8E1,8.9E1,2.07E2,2.6E1,5.2E1,7E0,1.2E2,7E0,2.4E1,1.26E2,2E1,5.4E1,4.2E1,8.4E1,3.9E1,6.33E2,5E0,5E0,4E0,1.6E1,5E0,1.2E1,1.4E1,6E0,5E0,6E0,9E0,4E0,6.6E1,2E1,1.37E2,1.13E2,8E0,3.54E2,2.4E1,4E0,6.1E1,1.7E1,6.4E1,2.5E1,9E0,1.98E2,2.2E1,4E0,2E1,4E0,1.11E2,1.5E1,4E0,1.6E1,3.9E1,1.5E1,2.6E1,1.6E1,6.2E1,2.2E1,3.4E1,5E0,3.42E2,2.91E2,1E1,6E0,4E0,8E0,8E0,6E0,4E0,5E0,5.3E1,1.3E1,1.3E1,7E0,1.3E1,1.24E2,4E0,1.09E2,3.5E2,4E0,1.9E1,5E0,5.5E1,6E0,1.2E1,5E0,6E1,4E0,1.1E1,1.4E1,4E0,5E0,4E0,1.94E2,5E0,1.7E1,1.6E1,4E0,6.7E1,4.4E1,4E0,1.1E1,1E1,2.9E1,1.1E1,4E0,1E1,1.6E1,7E0,9E0,5.8E1,4E0,8E0,1.4E1,2.4E1,1E1,2.05E2,1.37E2,5E0,2.86E2,4E0,6E0,4E0,4E0,4.5E1,8E0,8E0,5E0,4E0,9E0,6E0,7E0,2.2E1,1.02E2,8.8E1,2.1E1,4.3E1,3.07E2,3.1E1,2.4E1,8E0,4E0,2.1E1,3.9E1,4E0,7E0,4E0,1E1,2.3E1,1.71E2,9E0,8E0],"tree_param":{"num_deleted":"0","num_feature":"4","num_nodes":"207","size_leaf_vector":"1"}},{"base_weights":[8.7203145E-2,-3.3052018E0,2.3596085E1,-8.616832E0,1.8880234E0,-3.7381655E-1,2.6422781E1,-1.4938705E1,-6.255256E0,-2.8698444E0,5.0857882E0,1.9834352E1,6.3218807E1,-3.5338458E-1,-1.3623497E1,-1.2518458E1,-4.38242E0,-9.310632E0,-6.943628E-1,1.6683755E0,6.9044785E0,1.6411901E1,2.3366726E1,4.4920536E1,7.4411644E1,-1.2470308E1,-3.507422E-1,-1.1626185E1,-3.4710804E-1,-6.4436283E0,-1.5248222E0,-1.3549852E1,-7.5279546E0,-1.7065147E-1,-5.5241096E-1,8.664427E0,1.257992E0,7.874943E0,-1.1079546E0,1.6841984E1,3.3346914E-2,2.4919123E1,1.57082405E1,1.03315E0,4.1002753E-1,8.2399666E-1,8.619874E1,-3.3944362E-1,-1.1799928E1,-1.2423128E1,-6.5368347E0,9.046156E-2,-6.6722035E0,-8.4908605E-1,-2.3908296E-1,-9.835993E0,-1.6434896E1,-6.3180704E0,-1.5795288E1,1.3433933E-1,-7.04726E-1,4.6423625E-2,2.7385506E-1,-1.5540856E0,2.0038908E0,6.641191E0,1.5438499E1,-2.3772488E0,1.6589722E-1,8.645916E0,1.766016E1,2.2854256E1,3.547339E1,1.7238379E-2,2.057913E1,1.0949024E0,1.9292617E0,-1.2270007E1,-8.993543E0,-1.5045675E1,-1.0656174E1,-1.481359E-1,-3.283256E-2,-3.4710455E-1,-6.4081683E0,-1.551512E0,7.7441726E0,-2.4391617E-1,-1.1178449E-1,-1.8103748E1,-1.7401804E-1,-3.2907038E0,-6.8910556E0,-3.864729E-1,-1.6588399E-1,-2.743254E0,5.407745E-6,3.6075413E0,-2.6900995E0,1.5721054E0,2.4746849E-1,5.9345417E0,1.0763375E1,2.0417753E1,5.676916E0,-3.8513885E0,-3.969984E-3,2.0170064E-1,7.860996E-2,2.0646101E1,1.4154495E1,2.6051514E1,1.3087035E1,4.2682824E-1,8.070247E-1,5.4425484E-1,1.2496966E1,-2.1823896E-1,-2.6925182E-1,-5.7435703E-2,-1.9994251E-1,-2.4282606E-1,-3.4024012E-1,-2.6466998E-1,-1.8748195E-1,-1.214065E-1,-2.5313893E-1,-4.3439593E-2,2.4272257E-2,3.6640195E-3,2.0785724E-1,-4.2070374E-1,-2.2175747E-1,-9.911423E-2,-1.6811876E-2,-2.0555267E-1,-1.1355872E-1,-6.910841E-2,1.1421087E-1,-5.24142E-2,1.885959E-2,5.306583E-3,1.22404896E-1,1.1948967E-1,-7.667577E-2,1.0546681E-1,1.6449241E-2,1.3222577E-1,4.202211E-2,2.4322519E-1,-7.7245094E-2,2.4736041E-1,8.011251E-1,-6.9186576E-2,4.643112E-1,-2.2544455E-2,-9.100659E-2,1.300313E-1,-6.0955152E-2,3.7774357E-1,5.271203E-1,3.100815E-1,1.00482E-1,4.3334392E-1,8.149979E-1,4.2676777E-1,1.5187918E-1,1.8462177E-2,3.9938042E-1],"categories":[],"categories_nodes":[],"categories_segments":[],"categories_sizes":[],"default_left":[0,0,0,0,0,0,0,0,0,0,0,0,0,0,0,0,0,0,0,0,0,0,0,0,0,0,0,0,0,0,0,0,0,0,0,0,0,0,0,0,0,0,0,0,0,0,0,0,0,0,0,0,0,0,0,0,0,0,0,0,0,0,0,0,0,0,0,0,0,0,0,0,0,0,0,0,0,0,0,0,0,0,0,0,0,0,0,0,0,0,0,0,0,0,0,0,0,0,0,0,0,0,0,0,0,0,0,0,0,0,0,0,0,0,0,0,0,0,0,0,0,0,0,0,0,0,0,0,0,0,0,0,0,0,0,0,0,0,0,0,0,0,0,0,0,0,0,0,0,0,0,0,0,0,0,0,0,0,0,0,0,0,0,0,0,0,0,0,0],"id":6,"left_children":[1,3,5,7,9,-1,11,13,15,17,19,21,23,-1,25,27,29,31,33,35,37,39,41,43,45,47,-1,49,-1,51,53,55,57,-1,59,61,63,65,67,69,-1,71,73,-1,-1,-1,75,-1,77,79,81,-1,83,85,-1,87,89,91,93,-1,95,-1,-1,97,99,101,103,105,-1,107,109,111,113,-1,115,-1,-1,117,119,121,123,-1,-1,-1,125,127,129,-1,-1,131,-1,133,135,-1,-1,137,139,141,143,145,-1,147,149,151,153,155,157,-1,-1,159,161,163,165,-1,-1,-1,167,-1,-1,-1,-1,-1,-1,-1,-1,-1,-1,-1,-1,-1,-1,-1,-1,-1,-1,-1,-1,-1,-1,-1,-1,-1,-1,-1,-1,-1,-1,-1,-1,-1,-1,-1,-1,-1,-1,-1,-1,-1,-1,-1,-1,-1,-1,-1,-1,-1,-1,-1,-1],"loss_changes":[2.0616719E5,6.2333273E4,3.9465562E4,1.6571453E4,1.7406012E4,0E0,7.288419E4,8.3052344E2,9.495924E3,6.4335664E3,4.2350586E3,2.7503516E3,6.014203E3,0E0,7.0834766E2,5.896426E2,3.690746E3,7.632461E2,3.7424432E2,6.699263E2,3.480377E3,8.2435156E2,1.0846406E3,2.1922031E3,6.949547E3,2.821582E2,0E0,5.615586E2,0E0,9.4629297E2,1.8505164E3,1.7774414E2,7.284746E2,0E0,3.7794714E2,3.74216E2,4.7949527E2,3.599502E3,6.0133545E2,7.1827734E2,0E0,1.4024766E3,1.7062393E3,0E0,0E0,0E0,7.716406E2,0E0,7.209375E1,4.6527344E2,8.5161865E1,0E0,8.857627E2,1.5177031E3,0E0,9.259802E1,4.742334E1,1.01923096E2,8.947754E1,0E0,4.8131067E2,0E0,0E0,2.9066586E2,7.78951E2,9.291592E2,2.5432969E3,1.5183878E2,0E0,4.7796997E1,9.346289E2,2.41725E3,1.3953906E2,0E0,6.0353076E2,0E0,0E0,3.914453E1,1.17933716E2,8.038965E1,1.4791113E2,0E0,0E0,0E0,6.5405273E2,4.0118915E2,3.7289172E2,0E0,0E0,1.6783691E1,0E0,4.9816605E1,1.8774414E2,0E0,0E0,5.362787E2,6.1691077E2,7.050982E1,4.181326E2,4.7515265E2,0E0,7.4930664E2,1.0532529E3,5.167324E3,3.295726E3,4.3213715E1,3.7437656E2,0E0,0E0,1.0046484E2,6.25708E2,3.3365547E3,9.101411E2,0E0,0E0,0E0,8.350896E2,0E0,0E0,0E0,0E0,0E0,0E0,0E0,0E0,0E0,0E0,0E0,0E0,0E0,0E0,0E0,0E0,0E0,0E0,0E0,0E0,0E0,0E0,0E0,0E0,0E0,0E0,0E0,0E0,0E0,0E0,0E0,0E0,0E0,0E0,0E0,0E0,0E0,0E0,0E0,0E0,0E0,0E0,0E0,0E0,0E0,0E0,0E0,0E0,0E0,0E0,0E0,0E0],"parents":[2147483647,0,0,1,1,2,2,3,3,4,4,6,6,7,7,8,8,9,9,10,10,11,11,12,12,14,14,15,15,16,16,17,17,18,18,19,19,20,20,21,21,22,22,23,23,24,24,25,25,27,27,29,29,30,30,31,31,32,32,34,34,35,35,36,36,37,37,38,38,39,39,41,41,42,42,46,46,48,48,49,49,50,50,52,52,53,53,55,55,56,56,57,57,58,58,60,60,63,63,64,64,65,65,66,66,67,67,69,69,70,70,71,71,72,72,74,74,77,77,78,78,79,79,80,80,84,84,85,85,86,86,89,89,91,91,92,92,95,95,96,96,97,97,98,98,99,99,101,101,102,102,103,103,104,104,105,105,106,106,109,109,110,110,111,111,112,112,116,116],"right_children":[2,4,6,8,10,-1,12,14,16,18,20,22,24,-1,26,28,30,32,34,36,38,40,42,44,46,48,-1,50,-1,52,54,56,58,-1,60,62,64,66,68,70,-1,72,74,-1,-1,-1,76,-1,78,80,82,-1,84,86,-1,88,90,92,94,-1,96,-1,-1,98,100,102,104,106,-1,108,110,112,114,-1,116,-1,-1,118,120,122,124,-1,-1,-1,126,128,130,-1,-1,132,-1,134,136,-1,-1,138,140,142,144,146,-1,148,150,152,154,156,158,-1,-1,160,162,164,166,-1,-1,-1,168,-1,-1,-1,-1,-1,-1,-1,-1,-1,-1,-1,-1,-1,-1,-1,-1,-1,-1,-1,-1,-1,-1,-1,-1,-1,-1,-1,-1,-1,-1,-1,-1,-1,-1,-1,-1,-1,-1,-1,-1,-1,-1,-1,-1,-1,-1,-1,-1,-1,-1,-1,-1],"split_conditions":[1.163564E1,2.3024611E0,4.0024883E-1,1.7965676E0,2.9273999E0,-3.7381655E-1,2.4401669E1,7.5E-2,1.2392064E0,1.3643615E0,2.635875E0,1.64873E1,2.8E1,-3.5338458E-1,6.763434E-1,1.8897511E0,2.5780816E0,8.507941E-1,9.6191496E-1,2.3212798E0,8.10649E0,7.2135725E0,7.571068E0,3.0440435E0,5.1954365E0,6.6986287E-1,-3.507422E-1,2.217311E0,-3.4710804E-1,1.2539046E0,2.0086746E0,2.1213202E0,4.942738E0,-1.7065147E-1,1.0077078E0,1.4679663E0,2.4029455E0,5.1954365E0,3.6921105E0,1.9637276E0,3.3346914E-2,3.3251438E0,7.8930306E0,1.03315E0,4.1002753E-1,8.2399666E-1,2.9342837E0,-3.3944362E-1,1.769973E0,9.041419E-1,1.1134056E0,9.046156E-2,3.12602E-1,9.847372E0,-2.3908296E-1,1.0827816E0,3.6902237E0,9.6216714E-1,1.20343E0,1.3433933E-1,1.8428204E0,4.6423625E-2,2.7385506E-1,2.3392744E0,8.28049E0,3.1999002E0,7.9808946E0,6.1987543E0,1.6589722E-1,1.3711874E1,1.3956683E1,5.1337013E0,6.7700324E0,1.7238379E-2,3.387984E0,1.0949024E0,1.9292617E0,1.6423714E0,9.4200164E-1,4.177032E-1,5.986088E-1,-1.481359E-1,-3.283256E-2,-3.4710455E-1,1.9322387E0,2.262251E0,2.036644E0,-2.4391617E-1,-1.1178449E-1,2.6001978E0,-1.7401804E-1,9.041419E-1,1.049306E0,-3.864729E-1,-1.6588399E-1,3.0192769E0,2.4137974E0,2.3329666E0,3.022965E0,2.4330223E0,2.4746849E-1,4.48833E0,3.6921105E0,6.1987543E0,3.0876164E0,3.4378765E0,1.0659774E1,2.0170064E-1,7.860996E-2,5.388741E0,6.5222526E0,3.6486294E0,1.8111105E1,4.2682824E-1,8.070247E-1,5.4425484E-1,8.456737E0,-2.1823896E-1,-2.6925182E-1,-5.7435703E-2,-1.9994251E-1,-2.4282606E-1,-3.4024012E-1,-2.6466998E-1,-1.8748195E-1,-1.214065E-1,-2.5313893E-1,-4.3439593E-2,2.4272257E-2,3.6640195E-3,2.0785724E-1,-4.2070374E-1,-2.2175747E-1,-9.911423E-2,-1.6811876E-2,-2.0555267E-1,-1.1355872E-1,-6.910841E-2,1.1421087E-1,-5.24142E-2,1.885959E-2,5.306583E-3,1.22404896E-1,1.1948967E-1,-7.667577E-2,1.0546681E-1,1.6449241E-2,1.3222577E-1,4.202211E-2,2.4322519E-1,-7.7245094E-2,2.4736041E-1,8.011251E-1,-6.9186576E-2,4.643112E-1,-2.2544455E-2,-9.100659E-2,1.300313E-1,-6.0955152E-2,3.7774357E-1,5.271203E-1,3.100815E-1,1.00482E-1,4.3334392E-1,8.149979E-1,4.2676777E-1,1.5187918E-1,1.8462177E-2,3.9938042E-1],"split_indices":[3,0,2,0,3,0,3,2,3,3,0,3,3,0,2,2,3,3,2,0,2,2,2,0,2,3,0,0,0,3,2,2,2,0,2,2,0,2,0,2,0,0,2,0,0,0,0,0,0,3,3,0,2,3,0,2,2,3,3,0,3,0,0,0,3,0,3,3,0,3,3,2,2,0,0,0,0,0,3,2,2,0,0,0,2,0,0,0,0,0,0,3,3,0,0,0,0,0,3,0,0,2,0,3,0,3,2,0,0,2,2,2,3,0,0,0,2,0,0,0,0,0,0,0,0,0,0,0,0,0,0,0,0,0,0,0,0,0,0,0,0,0,0,0,0,0,0,0,0,0,0,0,0,0,0,0,0,0,0,0,0,0,0,0,0,0,0,0,0],"split_type":[0,0,0,0,0,0,0,0,0,0,0,0,0,0,0,0,0,0,0,0,0,0,0,0,0,0,0,0,0,0,0,0,0,0,0,0,0,0,0,0,0,0,0,0,0,0,0,0,0,0,0,0,0,0,0,0,0,0,0,0,0,0,0,0,0,0,0,0,0,0,0,0,0,0,0,0,0,0,0,0,0,0,0,0,0,0,0,0,0,0,0,0,0,0,0,0,0,0,0,0,0,0,0,0,0,0,0,0,0,0,0,0,0,0,0,0,0,0,0,0,0,0,0,0,0,0,0,0,0,0,0,0,0,0,0,0,0,0,0,0,0,0,0,0,0,0,0,0,0,0,0,0,0,0,0,0,0,0,0,0,0,0,0,0,0,0,0,0,0],"sum_hessian":[2.583E3,2.258E3,3.25E2,1.116E3,1.142E3,2E1,3.05E2,3.02E2,8.14E2,4.59E2,6.83E2,2.6E2,4.5E1,9.4E1,2.08E2,1.86E2,6.28E2,1.15E2,3.44E2,2.38E2,4.45E2,1.35E2,1.25E2,1.9E1,2.6E1,1.64E2,4.4E1,1.6E2,2.6E1,3.64E2,2.64E2,3.2E1,8.3E1,5E0,3.39E2,1.2E1,2.26E2,3.97E2,4.8E1,1.31E2,4E0,1.02E2,2.3E1,1.4E1,5E0,8E0,1.8E1,1.8E1,1.46E2,1.37E2,2.3E1,7E0,3.57E2,2.49E2,1.5E1,1.6E1,1.6E1,7.4E1,9E0,6E0,3.33E2,6E0,6E0,4.7E1,1.79E2,3.43E2,5.4E1,4.3E1,5E0,1.3E1,1.18E2,8.8E1,1.4E1,6E0,1.7E1,6E0,1.2E1,1.22E2,2.4E1,5.2E1,8.5E1,1.9E1,4E0,7E0,3.5E2,2.31E2,1.8E1,9E0,7E0,1.2E1,4E0,1.3E1,6.1E1,5E0,4E0,8.5E1,2.48E2,8E0,3.9E1,1.73E2,6E0,2.95E2,4.8E1,3.5E1,1.9E1,2.6E1,1.7E1,9E0,4E0,6.1E1,5.7E1,6.5E1,2.3E1,5E0,9E0,8E0,9E0,6.2E1,6E1,4E0,2E1,2.4E1,2.8E1,2.5E1,6E1,3.34E2,1.6E1,1.89E2,4.2E1,5E0,1.3E1,7E0,5E0,7E0,6E0,1.4E1,4.7E1,7.9E1,6E0,6.5E1,1.83E2,4E0,4E0,4E0,3.5E1,2.8E1,1.45E2,2.5E2,4.5E1,4.4E1,4E0,2.6E1,9E0,1.3E1,6E0,6E0,2E1,5E0,1.2E1,5E1,1.1E1,4.9E1,8E0,5.2E1,1.3E1,8E0,1.5E1,4E0,5E0],"tree_param":{"num_deleted":"0","num_feature":"4","num_nodes":"169","size_leaf_vector":"1"}},{"base_weights":[6.342733E-2,-3.4643078E0,2.0708471E1,-1.1690135E1,-7.0174634E-1,-3.6218295E-1,2.3159698E1,-1.4865043E1,-8.787726E0,-4.148597E0,3.122446E0,1.8566198E1,6.2246742E1,-3.5214397E-1,-1.34382305E1,-1.3489701E1,-6.893928E0,-1.0279657E1,-2.5493476E0,4.1358662E-1,5.9994392E0,1.618026E1,3.2069195E1,4.877456E-1,1.3476661E0,-1.2538995E1,-3.3986166E-1,-8.062655E0,-1.5814271E1,-6.1374955E0,-1.3419863E1,-8.505177E0,-1.5402099E1,-4.3353705E0,-8.932951E-1,1.4994158E-1,2.3933204E-1,6.730301E0,-1.6417124E0,9.660665E0,1.7734158E1,4.1102844E1,2.0832216E1,-1.3463075E1,-9.208254E0,-6.4140983E0,-2.534718E-1,-3.2826903E-1,-2.0050223E-1,-6.610691E0,8.086201E-1,-3.3236343E-1,-8.185906E0,-1.1170955E1,-7.3905826E0,-1.6210531E1,-1.1169052E-1,-3.7631867E0,-7.4148335E0,-3.0933912E0,-5.967226E-2,4.065834E-1,-6.8798475E0,5.6849313E0,1.2836205E1,-5.264113E0,8.256837E-1,7.2476864E0,1.319655E1,1.6490442E1,2.5043339E1,2.9214346E1,1.1192031E0,1.0690079E1,6.578797E-1,-3.4142575E-1,-1.2632013E1,-5.8268943E0,-1.0133843E1,-1.672135E-1,1.6043502E-3,-3.328657E0,-7.1431375E0,5.0466612E-2,-3.0448617E-2,-2.0970918E-1,-9.630589E-2,-9.865817E0,-3.2794777E-1,-8.305812E0,-4.7539015E0,-3.7455449E-1,-1.2604094E1,-4.2570763E0,-1.1811645E0,-8.722743E0,-4.254147E0,3.9752064E0,-3.9383483E0,-7.259013E0,4.338843E-1,-1.7573339E0,1.2694976E0,-9.1571563E-1,-2.9178807E-1,5.8496246E0,-1.0121929E-1,4.893055E0,1.7950537E1,-5.0673608E-2,-1.5110895E-1,2.7033727E0,-4.9919643E-2,1.0066654E1,-6.914327E-2,3.0127832E-1,8.200391E-2,1.6892921E1,-3.5047624E-2,7.3086315E-1,1.6433802E1,6.75633E-1,3.17638E-1,3.2495856E-1,9.632464E-3,-2.0957476E-1,-2.7518237E-1,-5.2110795E-2,-1.6838281E-1,-2.394713E-1,-1.2975071E-1,1.2063359E-1,-1.3866717E-1,-1.6650513E-1,-1.0429874E-1,-2.1994679E-1,-2.4436487E-2,-2.2512065E-2,-1.7407365E-1,-1.0243473E-2,-1.0834031E-1,-1.02059096E-1,-2.8253385E-1,-1.823525E-1,-7.817244E-2,7.9336606E-2,-4.0889043E-2,-2.9162517E-1,-1.4958045E-1,-2.8591692E-2,-1.4371164E-1,1.4829662E-1,-3.0546207E-2,-1.08077906E-1,-5.5624988E-2,-1.1201442E-2,-1.847121E-1,1.3745068E-2,-1.1171378E-1,1.3185803E-2,-2.0043653E-1,1.9505216E-1,1.9557303E-2,-1.2798224E-1,9.285648E-2,1.0162205E-1,1.491689E-1,-2.5102186E-3,2.0960055E-1,7.049299E-1,8.863515E-2,-6.031795E-2,1.0693341E-1,2.5237438E-1,9.852611E-2,3.0120975E-1,4.01845E-1,4.4498655E-1,7.05474E-4],"categories":[],"categories_nodes":[],"categories_segments":[],"categories_sizes":[],"default_left":[0,0,0,0,0,0,0,0,0,0,0,0,0,0,0,0,0,0,0,0,0,0,0,0,0,0,0,0,0,0,0,0,0,0,0,0,0,0,0,0,0,0,0,0,0,0,0,0,0,0,0,0,0,0,0,0,0,0,0,0,0,0,0,0,0,0,0,0,0,0,0,0,0,0,0,0,0,0,0,0,0,0,0,0,0,0,0,0,0,0,0,0,0,0,0,0,0,0,0,0,0,0,0,0,0,0,0,0,0,0,0,0,0,0,0,0,0,0,0,0,0,0,0,0,0,0,0,0,0,0,0,0,0,0,0,0,0,0,0,0,0,0,0,0,0,0,0,0,0,0,0,0,0,0,0,0,0,0,0,0,0,0,0,0,0,0,0,0,0,0,0,0,0,0,0,0,0,0,0],"id":7,"left_children":[1,3,5,7,9,-1,11,13,15,17,19,21,23,-1,25,27,29,31,33,35,37,39,41,-1,-1,43,-1,45,47,49,51,53,55,57,59,61,-1,63,65,67,69,71,73,75,77,79,-1,-1,-1,81,83,-1,85,87,89,91,-1,93,95,97,99,101,103,105,107,109,111,113,115,117,119,121,-1,123,-1,-1,125,127,129,-1,-1,131,133,-1,-1,-1,-1,135,-1,137,139,-1,141,143,145,147,149,151,153,155,157,159,161,163,-1,165,-1,167,169,-1,-1,171,-1,173,-1,-1,-1,175,-1,-1,177,-1,-1,-1,-1,-1,-1,-1,-1,-1,-1,-1,-1,-1,-1,-1,-1,-1,-1,-1,-1,-1,-1,-1,-1,-1,-1,-1,-1,-1,-1,-1,-1,-1,-1,-1,-1,-1,-1,-1,-1,-1,-1,-1,-1,-1,-1,-1,-1,-1,-1,-1,-1,-1,-1,-1,-1,-1,-1],"loss_changes":[1.8863855E5,5.025138E4,3.638914E4,4.9800625E3,2.1855117E4,0E0,6.2719188E4,7.7953516E2,2.505041E3,8.516909E3,6.119645E3,9.764594E3,5.502453E3,0E0,3.3998047E2,9.066924E2,9.4866016E2,1.4922324E3,2.043023E3,1.2282963E3,2.141539E3,2.5897188E3,3.8813086E3,0E0,0E0,3.131543E2,0E0,1.136405E2,1.8896484E1,6.362715E2,2.0210645E2,3.115088E2,2.5486035E2,5.528125E2,6.602049E2,7.173486E2,0E0,2.1382832E3,3.1063177E2,3.6257617E2,1.5645156E3,2.7349453E3,2.4384639E3,1.04166016E2,4.187378E1,2.8325903E2,0E0,0E0,0E0,2.8337158E2,5.6344097E1,0E0,1.8755981E1,8.325E1,1.9236621E2,1.19237305E2,0E0,3.529265E2,1.6671313E2,6.069294E2,9.413483E2,7.208684E2,6.219988E2,5.5919434E2,1.9310264E3,6.2997467E1,1.378377E2,1.0945535E3,2.8459717E2,1.440168E3,2.3410938E3,4.10958E2,0E0,7.774597E2,0E0,0E0,7.32959E1,5.5615723E1,8.676514E1,0E0,0E0,9.533198E2,2.9801514E2,0E0,0E0,0E0,0E0,3.0273364E2,0E0,1.9058447E2,7.278076E1,0E0,1.4595288E2,3.5873096E2,2.1594934E2,1.3405615E2,1.25835785E2,2.2269656E2,1.314751E2,2.1463599E2,3.7791156E2,2.208602E3,6.6747906E2,3.0497543E2,0E0,3.2007227E2,0E0,5.957173E2,6.8369766E3,0E0,0E0,2.2903189E2,0E0,2.9568018E2,0E0,0E0,0E0,7.7471875E2,0E0,0E0,1.7991372E3,0E0,0E0,0E0,0E0,0E0,0E0,0E0,0E0,0E0,0E0,0E0,0E0,0E0,0E0,0E0,0E0,0E0,0E0,0E0,0E0,0E0,0E0,0E0,0E0,0E0,0E0,0E0,0E0,0E0,0E0,0E0,0E0,0E0,0E0,0E0,0E0,0E0,0E0,0E0,0E0,0E0,0E0,0E0,0E0,0E0,0E0,0E0,0E0,0E0,0E0,0E0,0E0,0E0,0E0,0E0,0E0,0E0,0E0],"parents":[2147483647,0,0,1,1,2,2,3,3,4,4,6,6,7,7,8,8,9,9,10,10,11,11,12,12,14,14,15,15,16,16,17,17,18,18,19,19,20,20,21,21,22,22,25,25,27,27,28,28,29,29,30,30,31,31,32,32,33,33,34,34,35,35,37,37,38,38,39,39,40,40,41,41,42,42,43,43,44,44,45,45,49,49,50,50,52,52,53,53,54,54,55,55,57,57,58,58,59,59,60,60,61,61,62,62,63,63,64,64,65,65,66,66,67,67,68,68,69,69,70,70,71,71,73,73,76,76,77,77,78,78,81,81,82,82,87,87,89,89,90,90,92,92,93,93,94,94,95,95,96,96,97,97,98,98,99,99,100,100,101,101,102,102,103,103,105,105,107,107,108,108,111,111,113,113,117,117,120,120],"right_children":[2,4,6,8,10,-1,12,14,16,18,20,22,24,-1,26,28,30,32,34,36,38,40,42,-1,-1,44,-1,46,48,50,52,54,56,58,60,62,-1,64,66,68,70,72,74,76,78,80,-1,-1,-1,82,84,-1,86,88,90,92,-1,94,96,98,100,102,104,106,108,110,112,114,116,118,120,122,-1,124,-1,-1,126,128,130,-1,-1,132,134,-1,-1,-1,-1,136,-1,138,140,-1,142,144,146,148,150,152,154,156,158,160,162,164,-1,166,-1,168,170,-1,-1,172,-1,174,-1,-1,-1,176,-1,-1,178,-1,-1,-1,-1,-1,-1,-1,-1,-1,-1,-1,-1,-1,-1,-1,-1,-1,-1,-1,-1,-1,-1,-1,-1,-1,-1,-1,-1,-1,-1,-1,-1,-1,-1,-1,-1,-1,-1,-1,-1,-1,-1,-1,-1,-1,-1,-1,-1,-1,-1,-1,-1,-1,-1,-1,-1,-1,-1],"split_conditions":[1.0318587E1,1.9770985E0,6.664796E-1,1.769973E0,2.9012358E0,-3.6218295E-1,2.596E1,7.5E-2,1.1876193E0,1.2289455E0,2.635875E0,2.0582476E1,4.48833E0,-3.5214397E-1,6.763434E-1,1.8438884E0,1.2101382E0,2.4659579E0,2.3151803E0,9.847372E0,9.259973E0,1.163564E1,5.2970233E0,4.877456E-1,1.3476661E0,4.3668003E0,-3.3986166E-1,9.6191496E-1,1.9321601E0,7.92E0,1.9034911E0,1.028549E0,6.3972087E0,1.538331E0,1.6402235E0,8.94E0,2.3933204E-1,5.1954365E0,3.3462825E0,2.9957116E0,7.085949E0,2.6964417E0,8.10649E0,6.047692E-1,2.268046E-1,6.3963926E-1,-2.534718E-1,-3.2826903E-1,-2.0050223E-1,1.2701755E0,9.392282E-1,-3.3236343E-1,2.0290134E0,9.858484E-1,2.4385476E0,8.8943475E-1,-1.1169052E-1,2.5780816E0,2.2623816E0,1.0077078E0,1.1594039E0,2.262251E0,1.538331E0,3.5333855E0,5.0461955E0,1.0184051E1,1.1337539E1,4.3507915E0,6.7700324E0,6.924592E0,7.571068E0,2.6458826E0,1.1192031E0,7.571068E0,6.578797E-1,-3.4142575E-1,1.6423714E0,4.94274E0,4.2954937E-1,-1.672135E-1,1.6043502E-3,5.085122E-1,1.9803662E0,5.0466612E-2,-3.0448617E-2,-2.0970918E-1,-9.630589E-2,9.307136E-1,-3.2794777E-1,2.0391786E0,1.3208431E0,-3.7455449E-1,9.4200164E-1,6.239455E-1,2.5918543E0,2.0910296E0,2.5025263E0,2.3184476E0,2.5297582E0,2.3392744E0,3.4334528E0,1.4993757E0,2.2720098E0,2.1032486E0,-2.9178807E-1,2.9342837E0,-1.0121929E-1,3.0581052E0,7.92E0,-5.0673608E-2,-1.5110895E-1,3.969765E0,-4.9919643E-2,3.5867162E0,-6.914327E-2,3.0127832E-1,8.200391E-2,1.58015E1,-3.5047624E-2,7.3086315E-1,1.8954023E1,6.75633E-1,3.17638E-1,3.2495856E-1,9.632464E-3,-2.0957476E-1,-2.7518237E-1,-5.2110795E-2,-1.6838281E-1,-2.394713E-1,-1.2975071E-1,1.2063359E-1,-1.3866717E-1,-1.6650513E-1,-1.0429874E-1,-2.1994679E-1,-2.4436487E-2,-2.2512065E-2,-1.7407365E-1,-1.0243473E-2,-1.0834031E-1,-1.02059096E-1,-2.8253385E-1,-1.823525E-1,-7.817244E-2,7.9336606E-2,-4.0889043E-2,-2.9162517E-1,-1.4958045E-1,-2.8591692E-2,-1.4371164E-1,1.4829662E-1,-3.0546207E-2,-1.08077906E-1,-5.5624988E-2,-1.1201442E-2,-1.847121E-1,1.3745068E-2,-1.1171378E-1,1.3185803E-2,-2.0043653E-1,1.9505216E-1,1.9557303E-2,-1.2798224E-1,9.285648E-2,1.0162205E-1,1.491689E-1,-2.5102186E-3,2.0960055E-1,7.049299E-1,8.863515E-2,-6.031795E-2,1.0693341E-1,2.5237438E-1,9.852611E-2,3.0120975E-1,4.01845E-1,4.4498655E-1,7.05474E-4],"split_indices":[3,0,2,0,3,0,3,2,3,3,0,3,2,0,2,0,2,2,0,3,2,3,2,0,0,3,0,2,0,3,0,2,2,2,3,3,0,2,0,0,2,0,2,3,2,2,0,0,0,3,2,0,3,2,0,3,0,3,3,2,2,0,2,0,3,2,2,2,2,2,2,0,0,2,0,0,0,3,2,0,0,2,3,0,0,0,0,2,0,0,2,0,3,2,3,0,3,0,0,0,0,2,0,0,0,0,0,0,3,0,0,3,0,2,0,0,0,3,0,0,3,0,0,0,0,0,0,0,0,0,0,0,0,0,0,0,0,0,0,0,0,0,0,0,0,0,0,0,0,0,0,0,0,0,0,0,0,0,0,0,0,0,0,0,0,0,0,0,0,0,0,0,0,0,0,0,0,0,0],"split_type":[0,0,0,0,0,0,0,0,0,0,0,0,0,0,0,0,0,0,0,0,0,0,0,0,0,0,0,0,0,0,0,0,0,0,0,0,0,0,0,0,0,0,0,0,0,0,0,0,0,0,0,0,0,0,0,0,0,0,0,0,0,0,0,0,0,0,0,0,0,0,0,0,0,0,0,0,0,0,0,0,0,0,0,0,0,0,0,0,0,0,0,0,0,0,0,0,0,0,0,0,0,0,0,0,0,0,0,0,0,0,0,0,0,0,0,0,0,0,0,0,0,0,0,0,0,0,0,0,0,0,0,0,0,0,0,0,0,0,0,0,0,0,0,0,0,0,0,0,0,0,0,0,0,0,0,0,0,0,0,0,0,0,0,0,0,0,0,0,0,0,0,0,0,0,0,0,0,0,0],"sum_hessian":[2.588E3,2.211E3,3.77E2,5.55E2,1.656E3,2.2E1,3.55E2,2.63E2,2.92E2,8.71E2,7.85E2,3.19E2,3.6E1,8.6E1,1.77E2,8.2E1,2.1E2,1.79E2,6.92E2,4.05E2,3.8E2,2.73E2,4.6E1,5E0,3.1E1,1.45E2,3.2E1,2.6E1,5.6E1,1.9E2,2E1,1.35E2,4.4E1,3.32E2,3.6E2,3.97E2,8E0,3.47E2,3.3E1,5.4E1,2.19E2,2.4E1,2.2E1,1.11E2,3.4E1,2.1E1,5E0,4.9E1,7E0,1.78E2,1.2E1,1.1E1,9E0,3.7E1,9.8E1,4E1,4E0,2.82E2,5E1,9.8E1,2.62E2,3.84E2,1.3E1,2.98E2,4.9E1,1.3E1,2E1,3.4E1,2E1,1.9E2,2.9E1,1.5E1,9E0,1.3E1,9E0,1.7E1,9.4E1,9E0,2.5E1,1.6E1,5E0,2.6E1,1.52E2,7E0,5E0,4E0,5E0,3.2E1,5E0,7.1E1,2.7E1,2.1E1,1.9E1,2.36E2,4.6E1,3.4E1,1.6E1,1E1,8.8E1,1.6E1,2.46E2,1.09E2,2.75E2,8E0,5E0,2.94E2,4E0,2E1,2.9E1,7E0,6E0,1.3E1,7E0,2.7E1,7E0,1.6E1,4E0,1.86E2,4E0,1.1E1,1.8E1,1E1,5E0,8E0,5E0,3.6E1,5.8E1,5E0,4E0,1.5E1,1E1,7E0,1.9E1,9.2E1,6E1,2.8E1,4E0,4E0,6.7E1,4E0,2.3E1,4E0,1.5E1,1.4E1,2.22E2,6E0,4E1,4E0,3E1,9E0,7E0,6E0,4E0,3.7E1,5.1E1,4E0,1.2E1,2.37E2,9E0,8.5E1,2.4E1,8E0,2.67E2,4E0,4E0,2.02E2,9.2E1,1.1E1,9E0,1.2E1,1.7E1,4E0,9E0,1.7E1,1E1,1.22E2,6.4E1,1.3E1,5E0],"tree_param":{"num_deleted":"0","num_feature":"4","num_nodes":"179","size_leaf_vector":"1"}},{"base_weights":[-6.0649242E-2,-3.4648967E0,1.9202879E1,-1.1999049E1,-5.921456E-1,-1.7894247E1,2.1452396E1,-1.5313086E1,-9.294715E0,-3.883034E0,3.3215287E0,-4.00713E-1,-1.2140125E-1,1.6487347E1,5.6161404E1,-1.6706593E1,-8.396973E0,-1.1782847E1,-1.8318092E0,-5.5234227E0,1.1875669E-1,2.923835E0,3.0122099E1,1.2156438E1,2.2079699E1,4.4675816E1,7.4870895E1,-1.5913092E1,-3.9405748E-1,-2.5655705E-1,-5.1120524E0,-1.0422193E1,-1.642357E1,-7.4735928E0,1.9817835E-1,-9.4113865E0,-4.4879603E0,-3.5954082E0,1.756086E0,2.0359044E0,7.9143124E0,1.056569E0,4.6107892E-2,1.144613E1,2.3459246E1,6.182812E0,2.3373104E1,4.9612E1,4.8430565E-1,7.100056E-1,1.6998216E0,-3.468932E-1,-1.2865011E1,3.24074E-3,-7.369671E0,-1.1357628E1,-4.5768046E0,-3.7587824E-1,-2.539466E-1,-2.1042373E-2,-1.0570607E1,-9.054787E-1,2.481354E-1,-7.537285E0,-3.1836796E-1,4.7090516E0,-4.6452956E0,-1.5028591E0,-6.2872477E0,-9.023186E-1,2.9912431E0,-4.4788703E-1,2.6478841E0,1.0757191E1,3.0015452E-2,8.425616E0,1.2996618E1,6.3696736E-1,2.4936867E-1,1.6377541E-1,7.006034E-2,2.4682539E1,1.3828908E-1,4.8207828E-1,1.0696285E0,-3.4492424E-1,-1.0091058E1,-9.31517E0,-0E0,-1.1883051E1,-1.3369966E0,1.4869079E-1,-7.012453E0,-2.607571E-1,-6.827979E-2,6.321757E0,-2.6640146E0,-9.203057E0,-3.7232068E0,2.8627202E-1,-1.1458618E-1,-7.8524704E0,-4.2390766E0,-3.4096029E0,6.115518E-1,-1.920838E-1,-3.8661363E0,1.3083015E-1,-1.5724425E0,3.5843112E0,-4.1927786E0,3.321102E0,-1.5528647E0,2.9310524E0,-4.451767E0,1.5995259E1,4.7128854E0,1.20519795E-1,-1.3340561E0,5.4212246E0,2.6118737E-1,1.3598678E1,-5.7208713E-2,2.1259094E1,3.0747246E1,-2.1787106E-1,-1.13050155E-1,-1.1722876E-1,-2.6857722E-1,-2.4168241E-1,-9.973749E-2,-7.935436E-2,2.9062487E-2,-1.8970029E-1,7.355544E-2,1.896267E-1,4.0371045E-2,-1.5433482E-2,-1.5517288E-1,2.3449412E-2,-1.9982293E-1,6.866605E-3,-1.0016847E-1,-1.2001836E-1,-2.153128E-1,-1.08914405E-1,-6.2501185E-2,4.2303037E-2,-1.0588014E-1,-4.9642224E-2,2.8438155E-2,-1.1295113E-1,-1.2109348E-2,1.7432853E-3,-5.755061E-2,1.2386765E-1,3.210449E-2,-1.2449096E-1,-3.4216814E-2,1.6512457E-1,3.852882E-2,3.1351622E-3,-5.4474812E-2,-1.778799E-1,6.1915483E-2,-1.4696255E-1,-1.5331857E-2,1.7078575E-1,3.7658152E-1,1.4703454E-1,-1.3487446E-2,-7.99017E-2,5.559285E-3,2.2461969E-1,-1.8461697E-2,1.0732195E-1,2.9073817E-1,4.572925E-1,2.2368158E-1,7.394437E-1,4.6064872E-1],"categories":[],"categories_nodes":[],"categories_segments":[],"categories_sizes":[],"default_left":[0,0,0,0,0,0,0,0,0,0,0,0,0,0,0,0,0,0,0,0,0,0,0,0,0,0,0,0,0,0,0,0,0,0,0,0,0,0,0,0,0,0,0,0,0,0,0,0,0,0,0,0,0,0,0,0,0,0,0,0,0,0,0,0,0,0,0,0,0,0,0,0,0,0,0,0,0,0,0,0,0,0,0,0,0,0,0,0,0,0,0,0,0,0,0,0,0,0,0,0,0,0,0,0,0,0,0,0,0,0,0,0,0,0,0,0,0,0,0,0,0,0,0,0,0,0,0,0,0,0,0,0,0,0,0,0,0,0,0,0,0,0,0,0,0,0,0,0,0,0,0,0,0,0,0,0,0,0,0,0,0,0,0,0,0,0,0,0,0,0,0,0,0,0,0,0,0,0,0,0,0],"id":8,"left_children":[1,3,5,7,9,11,13,15,17,19,21,-1,-1,23,25,27,29,31,33,35,37,39,41,43,45,47,49,51,-1,-1,53,55,57,59,61,63,65,67,69,71,73,-1,-1,75,77,79,81,83,-1,-1,-1,-1,85,-1,87,89,91,-1,-1,-1,93,95,-1,97,-1,99,101,103,105,107,109,111,113,115,117,119,121,-1,-1,-1,-1,123,-1,-1,-1,-1,125,127,-1,129,131,-1,133,-1,-1,135,137,139,141,-1,-1,143,145,147,149,-1,151,-1,153,155,157,159,161,163,165,167,169,-1,171,173,-1,175,-1,177,179,-1,-1,-1,-1,-1,-1,-1,-1,-1,-1,-1,-1,-1,-1,-1,-1,-1,-1,-1,-1,-1,-1,-1,-1,-1,-1,-1,-1,-1,-1,-1,-1,-1,-1,-1,-1,-1,-1,-1,-1,-1,-1,-1,-1,-1,-1,-1,-1,-1,-1,-1,-1,-1,-1,-1,-1],"loss_changes":[1.7160961E5,5.451079E4,3.318189E4,4.86325E3,2.145751E4,4.466543E2,6.297E4,2.2555742E3,5.7459277E3,5.9444414E3,8.005134E3,0E0,0E0,7.6088203E3,6.4754375E3,1.5938281E2,5.6515967E2,1.2855938E3,9.101771E2,2.5348438E3,1.6107867E3,3.3063442E3,6.796212E3,1.2059277E3,2.7386406E3,1.8896758E3,3.2927344E3,4.9798438E2,0E0,0E0,3.2657208E2,9.4005273E2,1.9481738E2,4.0023743E2,8.124166E2,1.5014551E3,7.583721E2,4.426018E2,6.079997E2,9.736731E2,2.526645E3,0E0,0E0,7.0786523E2,5.0100195E2,2.950772E1,2.6139766E3,1.0378242E3,0E0,0E0,0E0,0E0,5.1609375E2,0E0,2.6965723E2,8.0358984E2,8.418027E2,0E0,0E0,0E0,1.9380518E2,7.1388043E2,0E0,6.3221387E2,0E0,9.889444E2,6.1289453E2,1.9308316E2,2.3666919E2,3.0191174E2,5.51537E2,5.3311273E2,1.0435603E3,2.541254E3,2.6411975E2,7.962842E2,1.1425918E3,0E0,0E0,0E0,0E0,1.8097188E3,0E0,0E0,0E0,0E0,6.484204E1,1.239845E2,0E0,1.37125E2,7.3183754E1,0E0,6.4596106E2,0E0,0E0,1.2421094E2,4.2324136E2,6.133862E2,1.8193555E2,0E0,0E0,2.2300586E2,5.792212E2,2.73186E2,6.0617096E1,0E0,1.2099365E2,0E0,1.2088393E2,5.899857E2,3.549295E1,1.7819824E2,1.9998698E2,9.866382E2,2.0345691E2,7.541045E2,5.772084E2,0E0,1.1464821E2,1.49029E3,0E0,7.686172E2,0E0,1.0199492E3,1.0850312E3,0E0,0E0,0E0,0E0,0E0,0E0,0E0,0E0,0E0,0E0,0E0,0E0,0E0,0E0,0E0,0E0,0E0,0E0,0E0,0E0,0E0,0E0,0E0,0E0,0E0,0E0,0E0,0E0,0E0,0E0,0E0,0E0,0E0,0E0,0E0,0E0,0E0,0E0,0E0,0E0,0E0,0E0,0E0,0E0,0E0,0E0,0E0,0E0,0E0,0E0,0E0,0E0,0E0,0E0,0E0,0E0],"parents":[2147483647,0,0,1,1,2,2,3,3,4,4,5,5,6,6,7,7,8,8,9,9,10,10,13,13,14,14,15,15,16,16,17,17,18,18,19,19,20,20,21,21,22,22,23,23,24,24,25,25,26,26,27,27,30,30,31,31,32,32,33,33,34,34,35,35,36,36,37,37,38,38,39,39,40,40,43,43,44,44,45,45,46,46,47,47,52,52,54,54,55,55,56,56,60,60,61,61,63,63,65,65,66,66,67,67,68,68,69,69,70,70,71,71,72,72,73,73,74,74,75,75,76,76,81,81,86,86,87,87,89,89,90,90,92,92,95,95,96,96,97,97,98,98,101,101,102,102,103,103,104,104,106,106,108,108,109,109,110,110,111,111,112,112,113,113,114,114,115,115,116,116,118,118,119,119,121,121,123,123,124,124],"right_children":[2,4,6,8,10,12,14,16,18,20,22,-1,-1,24,26,28,30,32,34,36,38,40,42,44,46,48,50,52,-1,-1,54,56,58,60,62,64,66,68,70,72,74,-1,-1,76,78,80,82,84,-1,-1,-1,-1,86,-1,88,90,92,-1,-1,-1,94,96,-1,98,-1,100,102,104,106,108,110,112,114,116,118,120,122,-1,-1,-1,-1,124,-1,-1,-1,-1,126,128,-1,130,132,-1,134,-1,-1,136,138,140,142,-1,-1,144,146,148,150,-1,152,-1,154,156,158,160,162,164,166,168,170,-1,172,174,-1,176,-1,178,180,-1,-1,-1,-1,-1,-1,-1,-1,-1,-1,-1,-1,-1,-1,-1,-1,-1,-1,-1,-1,-1,-1,-1,-1,-1,-1,-1,-1,-1,-1,-1,-1,-1,-1,-1,-1,-1,-1,-1,-1,-1,-1,-1,-1,-1,-1,-1,-1,-1,-1,-1,-1,-1,-1,-1,-1],"split_conditions":[1.0318587E1,2.0625053E2,6.664796E-1,7.842946E1,2.9012358E0,2.4264662E1,2.4401669E1,5.4632907E0,3.1946146E0,5.691587E2,2.0309438E3,-4.00713E-1,-1.2140125E-1,1.541297E1,3.174E1,6.763434E-1,5.5245143E-1,1.2661077E0,1E2,1.1876193E0,1.5779825E0,1.079105E3,6.9742837E0,6.849398E0,1.6296756E2,6.6106186E0,3.2345117E2,2.1158817E-1,-3.9405748E-1,-2.5655705E-1,4.2E1,9.971149E-1,1.5011899E2,4.94274E0,9.565188E0,2.509953E0,2.0870291E2,7.663779E2,6.7920215E2,1.439399E0,6.7700324E0,1.056569E0,4.6107892E-2,1.163564E1,2.0309438E3,2.631316E0,2.2889226E3,2.3498712E2,4.8430565E-1,7.100056E-1,1.6998216E0,-3.468932E-1,7.809659E-1,3.24074E-3,9.47E0,2.3193707E0,1.0077078E0,-3.7587824E-1,-2.539466E-1,-2.1042373E-2,9.04262E-1,3.5797577E0,2.481354E-1,4.2799277E2,-3.1836796E-1,5.187189E-1,6.29777E-1,6.467732E2,1.3371495E0,1.3450562E0,2.792043E0,2.9810938E2,7.8930306E0,6.1987543E0,1.1936451E3,1.0929174E3,6.3972087E0,6.3696736E-1,2.4936867E-1,1.6377541E-1,7.006034E-2,1.9814486E1,1.3828908E-1,4.8207828E-1,1.0696285E0,-3.4492424E-1,7.1548874E1,1.1704584E0,-0E0,2.0159491E2,3.4518304E-1,1.4869079E-1,1.2455302E0,-2.607571E-1,-6.827979E-2,4.5367718E-1,1.5696082E2,2.3020323E2,1.2661077E0,2.8627202E-1,-1.1458618E-1,1.6985044E0,1.9188917E0,5.8437646E2,1.130556E0,-1.920838E-1,1.0428375E3,1.3083015E-1,2.3481848E0,2.74272E0,2.4081264E0,2.3020323E2,3.2447388E0,2.505642E2,1.00753107E3,3.8613384E0,8.94E0,1.20519795E-1,6E0,3.6486294E0,2.6118737E-1,1.5389174E2,-5.7208713E-2,1.9423534E1,5.2970233E0,-2.1787106E-1,-1.13050155E-1,-1.1722876E-1,-2.6857722E-1,-2.4168241E-1,-9.973749E-2,-7.935436E-2,2.9062487E-2,-1.8970029E-1,7.355544E-2,1.896267E-1,4.0371045E-2,-1.5433482E-2,-1.5517288E-1,2.3449412E-2,-1.9982293E-1,6.866605E-3,-1.0016847E-1,-1.2001836E-1,-2.153128E-1,-1.08914405E-1,-6.2501185E-2,4.2303037E-2,-1.0588014E-1,-4.9642224E-2,2.8438155E-2,-1.1295113E-1,-1.2109348E-2,1.7432853E-3,-5.755061E-2,1.2386765E-1,3.210449E-2,-1.2449096E-1,-3.4216814E-2,1.6512457E-1,3.852882E-2,3.1351622E-3,-5.4474812E-2,-1.778799E-1,6.1915483E-2,-1.4696255E-1,-1.5331857E-2,1.7078575E-1,3.7658152E-1,1.4703454E-1,-1.3487446E-2,-7.99017E-2,5.559285E-3,2.2461969E-1,-1.8461697E-2,1.0732195E-1,2.9073817E-1,4.572925E-1,2.2368158E-1,7.394437E-1,4.6064872E-1],"split_indices":[3,1,2,1,3,1,3,3,3,1,1,0,0,3,3,2,2,2,1,3,3,1,3,2,1,2,1,2,0,0,1,2,1,3,3,2,1,1,1,2,2,0,0,3,1,2,1,1,0,0,0,0,3,0,3,3,2,0,0,0,2,3,0,1,0,2,2,1,3,2,3,1,2,3,1,1,2,0,0,0,0,3,0,0,0,0,1,2,0,1,2,0,2,0,0,2,1,1,2,0,0,3,3,1,3,0,1,0,3,2,2,1,3,1,1,3,3,0,3,2,0,1,0,3,2,0,0,0,0,0,0,0,0,0,0,0,0,0,0,0,0,0,0,0,0,0,0,0,0,0,0,0,0,0,0,0,0,0,0,0,0,0,0,0,0,0,0,0,0,0,0,0,0,0,0,0,0,0,0,0,0],"split_type":[0,0,0,0,0,0,0,0,0,0,0,0,0,0,0,0,0,0,0,0,0,0,0,0,0,0,0,0,0,0,0,0,0,0,0,0,0,0,0,0,0,0,0,0,0,0,0,0,0,0,0,0,0,0,0,0,0,0,0,0,0,0,0,0,0,0,0,0,0,0,0,0,0,0,0,0,0,0,0,0,0,0,0,0,0,0,0,0,0,0,0,0,0,0,0,0,0,0,0,0,0,0,0,0,0,0,0,0,0,0,0,0,0,0,0,0,0,0,0,0,0,0,0,0,0,0,0,0,0,0,0,0,0,0,0,0,0,0,0,0,0,0,0,0,0,0,0,0,0,0,0,0,0,0,0,0,0,0,0,0,0,0,0,0,0,0,0,0,0,0,0,0,0,0,0,0,0,0,0,0,0],"sum_hessian":[2.615E3,2.223E3,3.92E2,5.59E2,1.664E3,2.2E1,3.7E2,2.49E2,3.1E2,9.04E2,7.6E2,1.8E1,4E0,3.25E2,4.5E1,2.06E2,4.3E1,2.32E2,7.8E1,6.41E2,2.63E2,7.5E2,1E1,1.85E2,1.4E2,3E1,1.5E1,1.68E2,3.8E1,1.7E1,2.6E1,1.82E2,5E1,2E1,5.8E1,1.33E2,5.08E2,8E1,1.83E2,6.38E2,1.12E2,5E0,5E0,1.76E2,9E0,1.1E1,1.29E2,2.3E1,7E0,4E0,1.1E1,1.11E2,5.7E1,8E0,1.8E1,1.56E2,2.6E1,2.8E1,2.2E1,7E0,1.3E1,5.4E1,4E0,1.05E2,2.8E1,8E0,5E2,4.6E1,3.4E1,5.8E1,1.25E2,1.26E2,5.12E2,8.2E1,3E1,6.2E1,1.14E2,4E0,5E0,5E0,6E0,1.19E2,1E1,4E0,1.9E1,2E1,3.7E1,1.4E1,4E0,1.48E2,8E0,4E0,2.2E1,9E0,4E0,1E1,4.4E1,7.2E1,3.3E1,4E0,4E0,5.4E1,4.46E2,2.4E1,2.2E1,1.3E1,2.1E1,4E0,5.4E1,1.16E2,9E0,2.8E1,9.8E1,4.93E2,1.9E1,4.3E1,3.9E1,5E0,2.5E1,3.9E1,2.3E1,1.1E2,4E0,7.9E1,4E1,3E1,7E0,9E0,5E0,1.43E2,5E0,4E0,4E0,1.8E1,4E0,5E0,5E0,3.3E1,1.1E1,5E0,6.7E1,8E0,2.5E1,3.5E1,1.9E1,2.12E2,2.34E2,6E0,1.8E1,4E0,1.8E1,1.3E1,8E0,2.4E1,3E1,4.9E1,6.7E1,4E0,5E0,5E0,2.3E1,4E1,5.8E1,6E0,4.87E2,1E1,9E0,1.3E1,3E1,2.6E1,1.3E1,9E0,1.6E1,2E1,1.9E1,1.2E1,9.8E1,6.7E1,1.2E1,2E1,2E1],"tree_param":{"num_deleted":"0","num_feature":"4","num_nodes":"181","size_leaf_vector":"1"}},{"base_weights":[1.9911371E-1,-2.9936523E0,2.1787941E1,-7.8463006E0,1.5882441E0,-3.7195846E-1,2.4064384E1,-1.4107203E1,-5.6306543E0,-2.7514157E0,4.4840517E0,1.9614248E1,6.4927185E1,-3.437656E-1,-1.278613E1,-9.648734E0,-3.21387E0,-9.241917E0,-7.090135E-1,1.3232772E0,6.2365932E0,1.7011717E1,2.7508184E1,7.372475E-1,1.5417892E0,-1.1574737E1,-3.3611467E-1,-1.4375029E1,-8.132262E0,-3.6735964E0,8.540999E0,-6.384739E0,-1.3151575E1,-2.0902915E0,6.342002E-1,7.266765E0,1.0635393E0,7.0733004E0,-2.2728918E0,1.5211375E1,2.020491E1,3.500671E1,2.0652855E1,-1.2441495E1,-8.182565E0,-1.21661005E1,-3.462704E-1,-7.612666E0,-2.82036E-1,-3.2553744E0,-1.1818466E1,4.2963033E0,1.1188388E1,-2.560244E-1,-5.6276784E0,-1.581089E1,-9.6281595E0,3.073907E0,-2.5352504E0,-3.8426774E0,1.3993622E0,-1.2320194E-2,2.5429234E-1,-1.6812344E0,1.9098585E0,6.073023E0,1.3099772E1,-3.2212442E-1,-8.038981E0,1.7918907E1,1.3661238E1,1.8704597E1,2.6352808E1,4.5550966E-1,9.6387035E-1,1.5561344E1,2.664735E1,-2.7668872E-1,-1.0576433E1,-9.405676E0,1.8584725E-2,-2.6377413E-1,-1.7988361E-1,-1.0435644E1,-6.9728775E0,-4.7842083E0,-1.3593053E0,-9.415808E0,-3.695375E-1,1.2870775E-1,2.3799159E-2,3.1874543E-1,1.22416854E-1,-7.558304E0,-4.607451E0,-1.351226E-1,-3.4514073E-1,-6.6809998E0,-2.776613E-1,-3.3963237E-2,1.3865457E-1,-2.9499216E0,4.6437044E0,-1.5190381E-1,-2.7906208E0,1.799951E0,-4.414994E0,-2.7192834E-1,-2.2860773E-1,6.096194E0,1.0004412E0,1.5176374E1,5.782408E0,4.7914577E0,1.7567406E1,-2.755896E0,3.2181668E0,-2.4695922E-1,-2.3048175E-2,1.3609315E1,5.6866497E-1,7.010412E0,1.5471059E1,2.2253819E1,1.2398027E1,7.642711E-1,2.4689254E-1,2.0609718E1,6.9038555E-2,8.432677E-1,1.7916723E1,-1.08490646E-1,-2.1914211E-1,3.8489264E-3,-2.1709496E-1,-2.3929831E-1,-1.0112239E-1,-1.1683631E-1,-1.6624273E-1,-1.4914359E-1,-7.556736E-2,-2.2210057E-3,-6.186972E-2,-2.1163715E-1,-1.0071445E-1,-7.4158646E-2,-1.7260024E-1,-3.572853E-2,-1.2507977E-1,-8.1469655E-2,-1.964672E-1,-1.2245731E-1,-4.081405E-2,1.8170276E-1,-1.2369411E-2,2.7351703E-2,-1.06059894E-1,2.2450244E-2,2.1287268E-1,-1.2913507E-1,-1.9477673E-2,-5.3815052E-2,6.34154E-2,1.6726237E-2,1.9245246E-1,2.5319122E-2,-9.054714E-2,1.0352102E-1,4.8066974E-1,1.0588472E-1,1.9627987E-1,1.5534195E-1,-7.7043146E-2,6.64992E-1,1.446889E-1,1.6861957E-2,-8.280087E-2,-4.086239E-3,9.643939E-2,3.087532E-1,3.6092836E-2,2.6005745E-1,1.7762462E-2,3.8112965E-1,2.4716182E-1,3.7413645E-1,8.504804E-1,1.8162788E-1,4.748056E-1,2.0674394E-1,4.8580417E-1,2.37409E-1,4.3789172E-1],"categories":[],"categories_nodes":[],"categories_segments":[],"categories_sizes":[],"default_left":[0,0,0,0,0,0,0,0,0,0,0,0,0,0,0,0,0,0,0,0,0,0,0,0,0,0,0,0,0,0,0,0,0,0,0,0,0,0,0,0,0,0,0,0,0,0,0,0,0,0,0,0,0,0,0,0,0,0,0,0,0,0,0,0,0,0,0,0,0,0,0,0,0,0,0,0,0,0,0,0,0,0,0,0,0,0,0,0,0,0,0,0,0,0,0,0,0,0,0,0,0,0,0,0,0,0,0,0,0,0,0,0,0,0,0,0,0,0,0,0,0,0,0,0,0,0,0,0,0,0,0,0,0,0,0,0,0,0,0,0,0,0,0,0,0,0,0,0,0,0,0,0,0,0,0,0,0,0,0,0,0,0,0,0,0,0,0,0,0,0,0,0,0,0,0,0,0,0,0,0,0,0,0,0,0,0,0,0,0,0,0,0,0],"id":9,"left_children":[1,3,5,7,9,-1,11,13,15,17,19,21,23,-1,25,27,29,31,33,35,37,39,41,-1,-1,43,-1,45,47,49,51,53,55,57,